{"learner":{"attributes":{"best_iteration":"2","best_score":"0.9958988523897621","scikit_learn":"{\"_estimator_type\": \"classifier\"}"},"feature_names":["step","amount","oldbalanceOrg","newbalanceOrig","oldbalanceDest","newbalanceDest","balance_diff_orig","balance_diff_dest","amount_to_orig_ratio","amount_to_dest_ratio","orig_balance_drained","dest_balance_received","step_tx_count","step_avg_amount","step_total_amount","orig_tx_cumcount","orig_amount_cumsum","orig_amount_cummean","dest_tx_cumcount","dest_amount_cumsum","amount_dev_from_orig_mean","amount_ratio_to_orig_mean","tx_type_CASH_IN","tx_type_CASH_OUT","tx_type_DEBIT","tx_type_PAYMENT","tx_type_TRANSFER","hour_of_day","is_night"],"feature_types":["int","float","float","float","float","float","float","float","float","float","int","int","int","float","float","int","float","float","int","float","float","float","i","i","i","i","i","int","int"],"gradient_booster":{"model":{"cats":{"enc":[],"feature_segments":[],"sorted_idx":[]},"gbtree_model_param":{"num_parallel_tree":"1","num_trees":"23"},"iteration_indptr":[0,1,2,3,4,5,6,7,8,9,10,11,12,13,14,15,16,17,18,19,20,21,22,23],"tree_info":[0,0,0,0,0,0,0,0,0,0,0,0,0,0,0,0,0,0,0,0,0,0,0],"trees":[{"base_weights":[-1.1868318E-2,-1.6373599E0,1.6109339E0,9.7744596E-1,-1.8302532E0,-1.5215364E0,1.7375115E0,-1.4468222E0,1.7645096E0,-1.9870881E0,-1.2902073E0,-1.9994013E-1,1.9955973E-1,1.0024202E0,1.9169377E0,-1.9985874E-1,1.991214E-1,1.8928596E0,-1.9880776E-1,-1.6018072E0,-1.9999707E-1,-2.9046366E-1,-1.9998327E-1,1.778485E0,-1.9994715E-1,1.667869E0,1.971644E0,1.9845133E0,-1.9823788E-1,-1.9987707E-1,-6.1479807E-1,1.2802498E0,-1.999508E-1,1.8093936E0,-1.9832985E-1,-1.997612E-1,1.9083679E0,1.972527E0,-1.8644069E-1,1.9901499E-1,-1.7419355E-1,7.687896E-2,-1.9939165E-1,3.954543E-2,1.5856682E-1,1.8283151E-1,-1.9725086E-1,1.919582E-1,-1.9466667E-1,1.9730571E-1,-1.7837839E-1],"categories":[],"categories_nodes":[],"categories_segments":[],"categories_sizes":[],"default_left":[0,0,0,0,0,0,0,0,0,0,0,0,0,0,0,0,0,0,0,0,0,0,0,0,0,0,0,0,0,0,0,0,0,0,0,0,0,0,0,0,0,0,0,0,0,0,0,0,0,0,0],"id":0,"left_children":[1,3,5,7,9,11,13,15,17,19,21,-1,-1,23,25,-1,-1,27,-1,29,-1,31,-1,33,-1,35,37,39,-1,-1,41,43,-1,45,-1,-1,47,49,-1,-1,-1,-1,-1,-1,-1,-1,-1,-1,-1,-1,-1],"loss_changes":[5.1479625E5,4.917764E4,3.8724688E4,1.2784434E4,7.6880312E3,6.3798076E3,1.2378656E4,3.1195598E3,2.4396963E3,3.4603125E2,1.4498754E4,0E0,0E0,4.2912617E4,1.02475E3,0E0,0E0,1.7410391E3,0E0,8.92729E2,0E0,2.2781514E4,0E0,1.705293E3,0E0,1.1987551E4,2.1321875E2,1.0383203E2,0E0,0E0,1.2530425E3,1.1944429E3,0E0,1.0424258E3,0E0,0E0,5.552578E2,1.26640625E2,0E0,0E0,0E0,0E0,0E0,0E0,0E0,0E0,0E0,0E0,0E0,0E0,0E0],"parents":[2147483647,0,0,1,1,2,2,3,3,4,4,5,5,6,6,7,7,8,8,9,9,10,10,13,13,14,14,17,17,19,19,21,21,23,23,25,25,26,26,27,27,30,30,31,31,33,33,36,36,37,37],"right_children":[2,4,6,8,10,12,14,16,18,20,22,-1,-1,24,26,-1,-1,28,-1,30,-1,32,-1,34,-1,36,38,40,-1,-1,42,44,-1,46,-1,-1,48,50,-1,-1,-1,-1,-1,-1,-1,-1,-1,-1,-1,-1,-1],"split_conditions":[3.516149E4,2.42E2,1E0,1E0,1E0,8.320576E6,1.12374E5,7.2867994E5,3.204485E4,1.3E1,9.9996966E-1,-1.9994013E-1,1.9955973E-1,9.999909E-1,2.2307848E5,-1.9985874E-1,1.991214E-1,1E0,-1.9880776E-1,1.2E1,-1.9999707E-1,1E0,-1.9998327E-1,3.238E3,-1.9994715E-1,-2.2002923E5,5E0,1E0,-1.9823788E-1,-1.9987707E-1,-1.4922045E5,6.35989E3,-1.999508E-1,1E0,-1.9832985E-1,-1.997612E-1,2.7400455E6,3.882E3,-1.8644069E-1,1.9901499E-1,-1.7419355E-1,7.687896E-2,-1.9939165E-1,3.954543E-2,1.5856682E-1,1.8283151E-1,-1.9725086E-1,1.919582E-1,-1.9466667E-1,1.9730571E-1,-1.7837839E-1],"split_indices":[6,12,10,10,10,2,2,9,16,0,21,0,0,21,2,0,0,25,0,0,0,25,0,12,0,7,18,24,0,0,7,6,0,25,0,0,5,12,0,0,0,0,0,0,0,0,0,0,0,0,0],"split_type":[0,0,0,0,0,0,0,0,0,0,0,0,0,0,0,0,0,0,0,0,0,0,0,0,0,0,0,0,0,0,0,0,0,0,0,0,0,0,0,0,0,0,0,0,0,0,0,0,0,0,0],"sum_hessian":[1.951554E5,9.7496914E4,9.76585E4,6.6979126E3,9.0799E4,3.7925146E3,9.3865984E4,1.6413823E3,5.0565303E3,7.036238E4,2.0436617E4,3.33925E3,4.5326477E2,1.8417576E4,7.544841E4,1.41475E3,2.2663239E2,4.8897803E3,1.6675E2,2.2806323E3,6.808175E4,8.484618E3,1.1952E4,1.4634575E4,3.783E3,1.3593031E4,6.1855375E4,4.7772803E3,1.125E2,1.62575E3,6.548824E2,4.421368E3,4.06325E3,1.4515825E4,1.1875E2,8.365E2,1.2756531E4,6.1841625E4,1.375E1,4.7705303E3,6.75E0,3.271324E2,3.2775E2,1.1351472E3,3.286221E3,1.4444075E4,7.175E1,1.2720031E4,3.65E1,6.1833375E4,8.25E0],"tree_param":{"num_deleted":"0","num_feature":"29","num_nodes":"51","size_leaf_vector":"1"}},{"base_weights":[2.1249853E-2,8.789665E-1,-1.8169838E0,-1.7723E0,1.8160119E0,-1.3999672E0,-1.8301507E0,-1.8188176E-1,1.8150471E-1,1.8199483E0,-1.8020974E-1,-1.8382932E-1,-3.4635642E-1,-1.8277165E0,-2.1119127E0,1.8219476E0,-1.7871182E-1,1.8301094E0,-1.8589875E-1,-1.8967372E0,-1.8216537E-1,-2.1918249E-1,-1.8023714E-1,1.8233567E0,1.2862786E0,1.9175287E-1,-1.5366583E-1,-1.9845604E0,-1.8206547E-1,1.8225193E-1,2.1807396E-1,-1.7722832E-1,1.8113784E-1,-2.069832E-1,-1.8961813E-1],"categories":[],"categories_nodes":[],"categories_segments":[],"categories_sizes":[],"default_left":[0,0,0,0,0,0,0,0,0,0,0,0,0,0,0,0,0,0,0,0,0,0,0,0,0,0,0,0,0,0,0,0,0,0,0],"id":1,"left_children":[1,3,5,7,9,11,13,-1,-1,15,-1,-1,17,19,21,23,-1,25,-1,27,-1,-1,-1,29,31,-1,-1,33,-1,-1,-1,-1,-1,-1,-1],"loss_changes":[3.1077803E5,3.3389716E5,3.4178125E2,5.8600938E3,1.417625E3,8.877615E2,3.7828125E1,0E0,0E0,7.18625E2,0E0,0E0,1.8680968E3,2.175E1,8.769531E0,7.246875E1,0E0,7.144769E1,0E0,2.874414E1,0E0,0E0,0E0,2.565625E1,4.264341E2,0E0,0E0,1.2932617E1,0E0,0E0,0E0,0E0,0E0,0E0,0E0],"parents":[2147483647,0,0,1,1,2,2,3,3,4,4,5,5,6,6,9,9,12,12,13,13,14,14,15,15,17,17,19,19,23,23,24,24,27,27],"right_children":[2,4,6,8,10,12,14,-1,-1,16,-1,-1,18,20,22,24,-1,26,-1,28,-1,-1,-1,30,32,-1,-1,34,-1,-1,-1,-1,-1,-1,-1],"split_conditions":[1.0184642E0,9.803471E-1,1.3E1,2.8601808E6,1E0,1.4475266E5,2.2307848E5,-1.8188176E-1,1.8150471E-1,1E0,-1.8020974E-1,-1.8382932E-1,4.632041E4,2.102461E0,4.1876E2,4.1876E2,-1.7871182E-1,3.691343E0,-1.8589875E-1,0E0,-1.8216537E-1,-2.1918249E-1,-1.8023714E-1,3.998E3,7.149201E5,1.9175287E-1,-1.5366583E-1,9.999909E-1,-1.8206547E-1,1.8225193E-1,2.1807396E-1,-1.7722832E-1,1.8113784E-1,-2.069832E-1,-1.8961813E-1],"split_indices":[8,8,0,1,25,8,2,0,0,22,0,0,4,8,3,3,0,9,0,7,0,0,0,12,1,0,0,21,0,0,0,0,0,0,0],"split_type":[0,0,0,0,0,0,0,0,0,0,0,0,0,0,0,0,0,0,0,0,0,0,0,0,0,0,0,0,0,0,0,0,0,0,0],"sum_hessian":[1.9710667E5,1.3439755E5,6.2709137E4,3.50961E4,9.930144E4,1.9226686E3,6.078647E4,3.464732E4,4.4878183E2,9.9194016E4,1.0742404E2,1.357269E3,5.6539954E2,6.027323E4,5.1323895E2,9.9139555E4,5.4455814E1,2.3174329E2,3.3365625E2,4.8417783E3,5.5431453E4,4.0309402E2,1.10144936E2,9.887704E4,2.6251846E2,2.2629784E2,5.445443E0,2.235838E3,2.6059407E3,9.865195E4,2.2508679E2,3.8117775E1,2.2440068E2,1.1265142E3,1.1093237E3],"tree_param":{"num_deleted":"0","num_feature":"29","num_nodes":"35","size_leaf_vector":"1"}},{"base_weights":[-1.6219733E-2,-1.3547664E0,1.349503E0,8.536443E-1,-1.5217434E0,1.5599016E0,-1.7453306E0,-1.2131022E0,1.49013E0,-1.6714927E0,-1.0200329E0,-1.2816058E0,1.6847767E0,-1.9106871E0,-1.7199714E0,-1.6813299E-1,1.6760182E-1,1.6806651E0,-1.687802E-1,-1.3440214E0,-1.6824864E-1,1.6874651E0,-1.6930226E0,-1.6829914E-1,1.6792929E-1,1.6849619E0,-1.383778E-1,-1.9480157E0,-1.6541898E-1,-1.6975334E0,-1.9601117E-1,1.6818465E-1,-1.05828E-1,-1.686357E-1,-2.7672476E-1,1.726984E0,-1.6485183E-1,-1.7199851E0,-1.6819021E-1,-1.6060452E-1,1.6850677E0,-1.9770466E-1,-1.6594827E-1,-1.7802993E0,-1.6843855E-1,-1.7160414E-1,1.6654162E-1,1.7967951E-1,1.6991256E-1,-1.903392E-1,-1.681971E-1,1.6843282E-1,1.9477694E-1,-1.6702501E-1,-1.840346E-1],"categories":[],"categories_nodes":[],"categories_segments":[],"categories_sizes":[],"default_left":[0,0,0,0,0,0,0,0,0,0,0,0,0,0,0,0,0,0,0,0,0,0,0,0,0,0,0,0,0,0,0,0,0,0,0,0,0,0,0,0,0,0,0,0,0,0,0,0,0,0,0,0,0,0,0],"id":2,"left_children":[1,3,5,7,9,11,13,15,17,19,21,23,25,27,29,-1,-1,31,-1,33,-1,35,37,-1,-1,39,-1,41,-1,43,-1,-1,-1,-1,45,47,-1,49,-1,-1,51,-1,-1,53,-1,-1,-1,-1,-1,-1,-1,-1,-1,-1,-1],"loss_changes":[3.4348494E5,3.4992688E4,6.0561297E4,8.777154E3,6.6264062E3,3.0902094E4,2.1539062E1,2.1283547E3,3.0913525E3,2.4232812E2,3.695842E4,4.3602954E3,4.975E1,4.229248E0,2.4386719E1,0E0,0E0,1.7353516E1,0E0,8.07646E2,0E0,5.352197E2,1.9765625E0,0E0,0E0,3.1703125E1,0E0,2.3625488E0,0E0,2.1279297E0,0E0,0E0,0E0,0E0,1.5076775E3,4.709961E0,0E0,2.9561523E1,0E0,0E0,1.2953125E1,0E0,0E0,1.0778809E0,0E0,0E0,0E0,0E0,0E0,0E0,0E0,0E0,0E0,0E0,0E0],"parents":[2147483647,0,0,1,1,2,2,3,3,4,4,5,5,6,6,7,7,8,8,9,9,10,10,11,11,12,12,13,13,14,14,17,17,19,19,21,21,22,22,25,25,27,27,29,29,34,34,35,35,37,37,40,40,43,43],"right_children":[2,4,6,8,10,12,14,16,18,20,22,24,26,28,30,-1,-1,32,-1,34,-1,36,38,-1,-1,40,-1,42,-1,44,-1,-1,-1,-1,46,48,-1,50,-1,-1,52,-1,-1,54,-1,-1,-1,-1,-1,-1,-1,-1,-1,-1,-1],"split_conditions":[3.516149E4,2.42E2,1.0184642E0,1E0,1E0,1E0,9.999909E-1,7.2867994E5,1.0184642E0,1.3E1,1.0184642E0,8.320576E6,1E0,3.238E3,2.2307848E5,-1.6813299E-1,1.6760182E-1,1E0,-1.687802E-1,1.4475266E5,-1.6824864E-1,1E0,9.9996966E-1,-1.6829914E-1,1.6792929E-1,1.2180601E-2,-1.383778E-1,1E0,-1.6541898E-1,1.6244882E0,-1.9601117E-1,1.6818465E-1,-1.05828E-1,-1.686357E-1,3.057746E0,6.171E3,-1.6485183E-1,1E0,-1.6819021E-1,-1.6060452E-1,3.998E3,-1.9770466E-1,-1.6594827E-1,1.12374E5,-1.6843855E-1,-1.7160414E-1,1.6654162E-1,1.7967951E-1,1.6991256E-1,-1.903392E-1,-1.681971E-1,1.6843282E-1,1.9477694E-1,-1.6702501E-1,-1.840346E-1],"split_indices":[6,12,8,10,10,10,21,9,8,0,8,2,25,12,2,0,0,25,0,8,0,25,21,0,0,9,0,25,0,8,0,0,0,0,9,2,0,25,0,0,12,0,0,2,0,0,0,0,0,0,0,0,0,0,0],"split_type":[0,0,0,0,0,0,0,0,0,0,0,0,0,0,0,0,0,0,0,0,0,0,0,0,0,0,0,0,0,0,0,0,0,0,0,0,0,0,0,0,0,0,0,0,0,0,0,0,0,0,0,0,0,0,0],"sum_hessian":[1.8789147E5,9.4889836E4,9.300164E4,6.669961E3,8.8219875E4,8.708197E4,5.91967E3,1.5702527E3,5.099708E3,6.793922E4,2.0280652E4,3.6654775E3,8.341649E4,7.7724475E2,5.1424253E3,1.3516195E3,2.1863324E2,4.811691E3,2.880171E2,2.210745E3,6.572848E4,4.0371853E3,1.6243466E4,3.228277E3,4.372003E2,8.341191E4,4.5847473E0,6.7274414E2,1.0450056E2,4.71037E3,4.3205502E2,4.810002E3,1.6888059E0,1.6734166E3,5.3732855E2,3.9903965E3,4.678903E1,4.698322E3,1.1545145E4,2.1922798E0,8.340972E4,6.0592676E2,6.6817406E1,6.272679E2,4.0831025E3,3.0868164E2,2.2864691E2,1.12008E3,2.8703164E3,7.9819543E2,3.9001265E3,8.318293E4,2.2678291E2,2.3160846E2,3.9565942E2],"tree_param":{"num_deleted":"0","num_feature":"29","num_nodes":"55","size_leaf_vector":"1"}},{"base_weights":[-3.7818033E-2,-1.3092705E0,1.2578839E0,7.7746487E-1,-1.4338528E0,1.360036E0,-1.2000114E0,1.1137376E0,-1.5745784E-1,-1.5073224E0,-7.360218E-1,7.9281455E-1,1.5095725E0,-1.5764524E-1,1.5737902E-1,1.4835867E0,-6.9454134E-1,-1.066048E0,-1.5402695E0,1.5871896E0,-1.5782365E-1,-1.5816085E-1,1.3942935E0,1.5681164E0,1.3537613E0,1.5473229E0,-1.5563226E-1,-1.5739322E-1,1.5501335E0,-1.5786964E-1,-1.5562004E-1,-9.225276E-1,-1.5493039E0,-1.4869085E-1,1.6102655E0,1.4481798E0,-1.9487572E-1,-1.4820297E-1,1.568777E0,7.289012E-1,1.4557763E0,-1.5252437E-1,1.5659125E-1,-9.177222E-2,1.5707213E-1,5.63425E-2,-1.5747899E-1,-1.5755083E-1,1.3245758E-1,-1.5665977E-1,-1.4412536E-1,1.612341E-1,-9.173262E-2,1.4634623E-1,-1.5579998E-1,-1.6830765E-1,1.4335205E-1,1.5689208E-1,-1.1899272E-1,1.4336826E-1,-1.6228807E-1,9.7718045E-2,1.5173775E-1],"categories":[],"categories_nodes":[],"categories_segments":[],"categories_sizes":[],"default_left":[0,0,0,0,0,0,0,0,0,0,0,0,0,0,0,0,0,0,0,0,0,0,0,0,0,0,0,0,0,0,0,0,0,0,0,0,0,0,0,0,0,0,0,0,0,0,0,0,0,0,0,0,0,0,0,0,0,0,0,0,0,0,0],"id":3,"left_children":[1,3,5,7,9,11,13,15,-1,17,19,21,23,-1,-1,25,27,29,31,33,-1,-1,35,37,39,41,-1,-1,43,-1,45,47,49,-1,51,53,55,-1,57,59,61,-1,-1,-1,-1,-1,-1,-1,-1,-1,-1,-1,-1,-1,-1,-1,-1,-1,-1,-1,-1,-1,-1],"loss_changes":[2.9382328E5,2.3403375E4,2.2180531E4,4.0134824E3,4.354125E3,7.192422E3,3.683483E3,2.9693262E3,0E0,1.1157031E3,1.5838768E4,2.5274928E4,6.100781E2,0E0,0E0,7.1638184E2,1.4914102E3,2.493419E3,3.976875E2,1.5518994E2,0E0,0E0,1.2094258E3,1.00609375E2,1.1678711E3,2.0857324E2,0E0,0E0,1.2255157E1,0E0,1.9660793E3,1.5182034E3,1.294375E2,0E0,1.2695801E1,6.2969727E2,1.1267667E3,0E0,2.1210938E1,4.271405E3,4.6323828E2,0E0,0E0,0E0,0E0,0E0,0E0,0E0,0E0,0E0,0E0,0E0,0E0,0E0,0E0,0E0,0E0,0E0,0E0,0E0,0E0,0E0,0E0],"parents":[2147483647,0,0,1,1,2,2,3,3,4,4,5,5,6,6,7,7,9,9,10,10,11,11,12,12,15,15,16,16,17,17,18,18,19,19,22,22,23,23,24,24,25,25,28,28,30,30,31,31,32,32,34,34,35,35,36,36,38,38,39,39,40,40],"right_children":[2,4,6,8,10,12,14,16,-1,18,20,22,24,-1,-1,26,28,30,32,34,-1,-1,36,38,40,42,-1,-1,44,-1,46,48,50,-1,52,54,56,-1,58,60,62,-1,-1,-1,-1,-1,-1,-1,-1,-1,-1,-1,-1,-1,-1,-1,-1,-1,-1,-1,-1,-1,-1],"split_conditions":[3.516149E4,2.22E2,4.1876E2,1E0,1E0,1.1569661E5,2.8601808E6,3.203801E4,-1.5745784E-1,1.979432E-2,4.94504E3,-1.0679543E5,2.8004246E8,-1.5764524E-1,1.5737902E-1,4.1876E2,6.048808E5,3.66E2,1E0,3.53044E3,-1.5782365E-1,-1.5816085E-1,2.87E3,5.1987708E-2,1.88671E5,2E2,-1.5563226E-1,-1.5739322E-1,1.2297601E6,-1.5786964E-1,4.1876E2,2.1457E4,1.2223E4,-1.4869085E-1,3.292674E4,1E0,1E0,-1.4820297E-1,5E0,9.9999434E-1,9.983102E-1,-1.5252437E-1,1.5659125E-1,-9.177222E-2,1.5707213E-1,5.63425E-2,-1.5747899E-1,-1.5755083E-1,1.3245758E-1,-1.5665977E-1,-1.4412536E-1,1.612341E-1,-9.173262E-2,1.4634623E-1,-1.5579998E-1,-1.6830765E-1,1.4335205E-1,1.5689208E-1,-1.1899272E-1,1.4336826E-1,-1.6228807E-1,9.7718045E-2,1.5173775E-1],"split_indices":[6,12,3,25,26,2,1,1,0,9,5,7,14,0,0,3,13,6,27,9,0,0,12,9,2,2,0,0,1,0,3,6,6,0,19,25,26,0,18,21,9,0,0,0,0,0,0,0,0,0,0,0,0,0,0,0,0,0,0,0,0,0,0],"split_type":[0,0,0,0,0,0,0,0,0,0,0,0,0,0,0,0,0,0,0,0,0,0,0,0,0,0,0,0,0,0,0,0,0,0,0,0,0,0,0,0,0,0,0,0,0,0,0,0,0,0,0,0,0,0,0,0,0,0,0,0,0,0,0],"sum_hessian":[1.7835123E5,9.001797E4,8.8333266E4,5.0711807E3,8.494679E4,8.4808984E4,3.5242817E3,4.437304E3,6.338768E2,7.6854195E4,8.09259E3,1.7694936E4,6.711405E4,3.103525E3,4.2075702E2,3.6839927E3,7.5331134E2,5.341849E3,7.151235E4,2.1529336E3,5.939656E3,3.5761096E3,1.4118827E4,4.8777527E4,1.8336521E4,3.6088196E3,7.517313E1,5.41477E2,2.1183434E2,3.4170344E3,1.9248147E3,1.032259E3,7.0480086E4,1.5568131E1,2.1373655E3,1.3655866E4,4.6296106E2,1.0076681E1,4.8767453E4,2.5746252E3,1.57618955E4,2.1215366E1,3.5876042E3,1.3920625E0,2.1044228E2,1.2779327E3,6.46882E2,8.00068E2,2.3219106E2,6.0744312E4,9.735776E3,2.1359739E3,1.391725E0,1.3587306E4,6.855985E1,2.418758E2,2.2108527E2,4.8765344E4,2.1103394E0,1.9812693E3,5.9335583E2,1.7993274E3,1.3962568E4],"tree_param":{"num_deleted":"0","num_feature":"29","num_nodes":"63","size_leaf_vector":"1"}},{"base_weights":[2.1508778E-2,-1.1960561E0,1.207735E0,1.0954237E0,-1.3174685E0,-1.1363242E0,1.2988024E0,-6.1533004E-1,1.4104972E0,-1.4823943E0,-7.895955E-1,-1.4935215E-1,1.4897168E-1,6.9883686E-1,1.4318392E0,-1.4901148E-1,1.4769614E-1,1.45387E0,-1.46659E-1,-1.1518286E0,-1.4935829E-1,5.3431142E-2,-1.4978532E-1,1.2988816E0,-1.4948633E-1,1.2475659E0,1.4692482E0,1.4859222E0,-1.4559545E-1,-1.4926268E-1,-3.1234726E-1,1.1053301E0,-1.4935349E-1,1.3547413E0,-1.9717823E-1,-1.5541456E0,1.437033E0,1.4699968E0,-1.5046895E-1,1.4890915E-1,-1.3376042E-1,-1.5113835E-1,7.5266026E-2,1.5203063E-1,7.47668E-2,1.4819406E-1,9.943598E-2,1.5007962E-1,-1.6290824E-1,-1.5153442E-1,-1.6534041E-1,1.4461161E-1,-1.571564E-1,1.4703909E-1,-1.6341995E-1],"categories":[],"categories_nodes":[],"categories_segments":[],"categories_sizes":[],"default_left":[0,0,0,0,0,0,0,0,0,0,0,0,0,0,0,0,0,0,0,0,0,0,0,0,0,0,0,0,0,0,0,0,0,0,0,0,0,0,0,0,0,0,0,0,0,0,0,0,0,0,0,0,0,0,0],"id":4,"left_children":[1,3,5,7,9,11,13,15,17,19,21,-1,-1,23,25,-1,-1,27,-1,29,-1,31,-1,33,-1,35,37,39,-1,-1,41,43,-1,45,47,49,51,53,-1,-1,-1,-1,-1,-1,-1,-1,-1,-1,-1,-1,-1,-1,-1,-1,-1],"loss_changes":[2.5570653E5,2.4308469E4,1.9144445E4,2.370776E3,7.2224062E3,3.1485073E3,6.889125E3,1.255073E3,4.6549658E2,2.3209375E2,1.1794985E4,0E0,0E0,2.0627646E4,4.8520312E2,0E0,0E0,3.4338623E2,0E0,5.929143E2,0E0,1.4679521E4,0E0,1.0285293E3,0E0,6.334871E3,1.3297656E2,3.4378418E1,0E0,0E0,7.675078E2,7.9584424E2,0E0,5.422637E2,1.081357E3,4.0649414E-1,3.0764453E2,7.41875E1,0E0,0E0,0E0,0E0,0E0,0E0,0E0,0E0,0E0,0E0,0E0,0E0,0E0,0E0,0E0,0E0,0E0],"parents":[2147483647,0,0,1,1,2,2,3,3,4,4,5,5,6,6,7,7,8,8,9,9,10,10,13,13,14,14,17,17,19,19,21,21,23,23,25,25,26,26,27,27,30,30,31,31,33,33,34,34,35,35,36,36,37,37],"right_children":[2,4,6,8,10,12,14,16,18,20,22,-1,-1,24,26,-1,-1,28,-1,30,-1,32,-1,34,-1,36,38,40,-1,-1,42,44,-1,46,48,50,52,54,-1,-1,-1,-1,-1,-1,-1,-1,-1,-1,-1,-1,-1,-1,-1,-1,-1],"split_conditions":[3.516149E4,1.19E2,1E0,1E0,1E0,2.8601808E6,1.12374E5,2.8601808E6,1E0,1.3E1,9.9996966E-1,-1.4935215E-1,1.4897168E-1,1.078659E5,2.15001E5,-1.4901148E-1,1.4769614E-1,3.203801E4,-1.46659E-1,1.2E1,-1.4935829E-1,1E0,-1.4978532E-1,2.849E3,-1.4948633E-1,-2.1098538E5,5E0,1E0,-1.4559545E-1,-1.4926268E-1,1E0,4.94504E3,-1.4935349E-1,9.94E2,3.717895E4,1.88671E5,2.2296778E6,1.8760826E7,-1.5046895E-1,1.4890915E-1,-1.3376042E-1,-1.5113835E-1,7.5266026E-2,1.5203063E-1,7.47668E-2,1.4819406E-1,9.943598E-2,1.5007962E-1,-1.6290824E-1,-1.5153442E-1,-1.6534041E-1,1.4461161E-1,-1.571564E-1,1.4703909E-1,-1.6341995E-1],"split_indices":[6,12,10,10,10,1,2,1,25,0,21,0,0,17,2,0,0,1,0,0,0,25,0,12,0,7,18,24,0,0,23,5,0,12,1,2,4,5,0,0,0,0,0,0,0,0,0,0,0,0,0,0,0,0,0],"split_type":[0,0,0,0,0,0,0,0,0,0,0,0,0,0,0,0,0,0,0,0,0,0,0,0,0,0,0,0,0,0,0,0,0,0,0,0,0,0,0,0,0,0,0,0,0,0,0,0,0,0,0,0,0,0,0],"sum_hessian":[1.770424E5,8.7367125E4,8.967528E4,4.395752E3,8.2971375E4,3.3531936E3,8.6322086E4,6.835158E2,3.712236E3,6.3218062E4,1.975331E4,2.9520796E3,4.0111417E2,1.5668237E4,7.065384E4,4.8219745E2,2.0131837E2,3.6575916E3,5.464439E1,2.0730786E3,6.1144984E4,9.019036E3,1.0734274E4,1.230331E4,3.364928E3,1.1928642E4,5.8725203E4,3.6182256E3,3.936604E1,1.4739371E3,5.9914154E2,5.3687217E3,3.650314E3,1.1860557E4,4.427527E2,7.551274E2,1.1173515E4,5.871093E4,1.4274447E1,3.6146409E3,3.5846095E0,2.816394E2,3.1750217E2,2.4837317E3,2.8849902E3,8.764092E3,3.0964648E3,2.0253517E2,2.4021751E2,5.5459546E2,2.0053194E2,1.11404E4,3.3113976E1,5.8704008E4,6.9234514E0],"tree_param":{"num_deleted":"0","num_feature":"29","num_nodes":"55","size_leaf_vector":"1"}},{"base_weights":[-1.0229959E-2,-1.170068E0,1.1408259E0,-1.4255345E-1,-4.6693283E-1,1.3282038E0,-1.559579E0,1.4596399E0,-1.4441174E0,-1.2440503E0,1.432109E0,-1.51859E0,-2.0275107E-1,1.4756448E0,-1.3955335E-1,-1.4810762E0,-1.42853E-1,-1.4249061E-1,1.417666E-1,1.4322765E0,-1.2582117E-1,-1.8312491E0,-1.463825E0,1.4334415E-1,1.5171942E0,-1.7262271E-1,-1.4249717E-1,1.452567E0,1.4273505E0,-1.9563868E0,-1.5001594E-1,-1.6841977E0,-1.4425862E0,1.5698509E-1,1.4442961E-1,1.4535306E-1,-1.4855337E-1,1.4266811E-1,1.605484E-1,-2.0081483E-1,-1.5254596E-1,-1.4195643E-1,-1.7879651E-1,-1.4259402E-1,-1.51079E-1],"categories":[],"categories_nodes":[],"categories_segments":[],"categories_sizes":[],"default_left":[0,0,0,0,0,0,0,0,0,0,0,0,0,0,0,0,0,0,0,0,0,0,0,0,0,0,0,0,0,0,0,0,0,0,0,0,0,0,0,0,0,0,0,0,0],"id":5,"left_children":[1,3,5,-1,7,9,11,13,15,17,19,21,-1,23,-1,25,-1,-1,-1,27,-1,29,31,-1,33,-1,-1,35,37,39,-1,41,43,-1,-1,-1,-1,-1,-1,-1,-1,-1,-1,-1,-1],"loss_changes":[2.190394E5,1.4679047E4,4.1669156E4,0E0,4.1006676E4,2.0582672E4,9.941406E1,3.3702637E2,6.2089844E0,1.4415176E3,3.515625E1,8.1515625E1,0E0,1.0607422E1,0E0,5.6128906E1,0E0,0E0,0E0,5.328125E0,0E0,2.7266357E1,1.7177734E1,0E0,1.1767578E1,0E0,0E0,4.29375E1,4.828125E0,8.66272E0,0E0,7.4105225E0,2.1914062E0,0E0,0E0,0E0,0E0,0E0,0E0,0E0,0E0,0E0,0E0,0E0,0E0],"parents":[2147483647,0,0,1,1,2,2,4,4,5,5,6,6,7,7,8,8,9,9,10,10,11,11,13,13,15,15,19,19,21,21,22,22,24,24,27,27,28,28,29,29,31,31,32,32],"right_children":[2,4,6,-1,8,10,12,14,16,18,20,22,-1,24,-1,26,-1,-1,-1,28,-1,30,32,-1,34,-1,-1,36,38,40,-1,42,44,-1,-1,-1,-1,-1,-1,-1,-1,-1,-1,-1,-1],"split_conditions":[3.516149E4,1E0,1.0184642E0,-1.4255345E-1,1.0184642E0,1E0,2.2307848E5,1E0,9.9996966E-1,1E7,1E0,1.078659E5,-2.0275107E-1,5.857389E7,-1.3955335E-1,1E0,-1.42853E-1,-1.4249061E-1,1.417666E-1,1.3131966E5,-1.2582117E-1,2.87E3,1.3915412E0,1.4334415E-1,1E0,-1.7262271E-1,-1.4249717E-1,3.238E3,1.8760826E7,1E0,-1.5001594E-1,1.12374E5,1.12374E5,1.5698509E-1,1.4442961E-1,1.4535306E-1,-1.4855337E-1,1.4266811E-1,1.605484E-1,-2.0081483E-1,-1.5254596E-1,-1.4195643E-1,-1.7879651E-1,-1.4259402E-1,-1.51079E-1],"split_indices":[6,10,8,0,8,10,2,25,21,6,25,17,0,14,0,25,0,0,0,17,0,12,8,0,26,0,0,12,5,25,0,2,2,0,0,0,0,0,0,0,0,0,0,0,0],"split_type":[0,0,0,0,0,0,0,0,0,0,0,0,0,0,0,0,0,0,0,0,0,0,0,0,0,0,0,0,0,0,0,0,0,0,0,0,0,0,0,0,0,0,0,0,0],"sum_hessian":[1.6406773E5,8.17221E4,8.234563E4,5.994249E4,2.177962E4,7.700299E4,5.342638E3,7.3292026E3,1.4450416E4,2.9893105E3,7.401369E4,4.916239E3,4.2639938E2,7.2888276E3,4.0374973E1,4.258691E3,1.0191725E4,2.7995535E3,1.8975688E2,7.400955E4,4.139354E0,7.27936E2,4.1883027E3,3.6335667E3,3.655261E3,7.875758E2,3.4711152E3,1.4400219E4,5.960933E4,5.247095E2,2.0322652E2,3.6128976E2,3.827013E3,2.110352E3,1.5449089E3,1.4396002E4,4.216864E0,5.939513E4,2.141967E2,4.6517422E2,5.953526E1,1.0589946E2,2.5539029E2,3.093838E3,7.3317523E2],"tree_param":{"num_deleted":"0","num_feature":"29","num_nodes":"45","size_leaf_vector":"1"}},{"base_weights":[1.4860006E-2,-1.1208078E0,1.085177E0,3.2166305E-1,-1.2668214E0,1.2688766E0,-1.4717852E0,-1.3682407E-1,1.0954665E0,-1.3558156E0,-9.478756E-1,-1.0696462E0,1.3745377E0,-1.4389763E0,-1.8256063E0,1.374631E0,-1.3874742E-1,-1.3685815E-1,-1.2877474E0,1.4031769E0,-1.3848029E0,-1.369054E-1,1.3651195E-1,1.3747289E0,-1.2319708E-1,-1.6534925E0,-1.3968983E0,-1.8360555E-1,-1.3032828E-1,1.3757877E-1,-8.934233E-2,-1.4372516E-1,-1.3684557E-1,1.4496708E0,-1.339268E-1,-1.53803E0,-1.3788073E0,-1.507034E-1,1.3748248E0,-1.7402194E0,-1.4257538E-1,-1.5774095E0,-1.3809258E0,-1.395589E-1,1.0204559E-1,1.4538789E-1,-1.9844699E-1,-1.6657232E-1,-1.4362775E-1,-1.4011541E-1,-1.3692956E-1,1.3953176E-1,1.3707243E-1,-1.3541096E-1,-1.7876104E-1,-1.3613026E-1,-1.6650034E-1,-1.3694125E-1,-1.4322196E-1],"categories":[],"categories_nodes":[],"categories_segments":[],"categories_sizes":[],"default_left":[0,0,0,0,0,0,0,0,0,0,0,0,0,0,0,0,0,0,0,0,0,0,0,0,0,0,0,0,0,0,0,0,0,0,0,0,0,0,0,0,0,0,0,0,0,0,0,0,0,0,0,0,0,0,0,0,0,0,0],"id":6,"left_children":[1,3,5,7,9,11,13,-1,15,17,19,21,23,25,27,29,-1,-1,31,33,35,-1,-1,37,-1,39,41,-1,-1,-1,-1,43,-1,45,-1,47,49,-1,51,53,-1,55,57,-1,-1,-1,-1,-1,-1,-1,-1,-1,-1,-1,-1,-1,-1,-1,-1],"loss_changes":[1.9105492E5,1.6062602E4,3.8009945E4,9.169121E3,1.964375E3,1.8655453E4,6.033789E1,0E0,3.3355098E3,4.528125E1,1.5524481E4,2.381399E3,3.76875E1,4.2539062E1,9.899902E-2,1.25703125E1,0E0,0E0,7.908447E2,3.0396094E2,9.587891E0,0E0,0E0,2.2046875E1,0E0,1.350415E1,9.816406E0,0E0,0E0,0E0,0E0,8.25866E2,0E0,3.6551758E1,0E0,3.7298584E0,6.894531E-1,0E0,4.15625E0,8.22168E0,0E0,4.0023193E0,3.0029297E-1,0E0,0E0,0E0,0E0,0E0,0E0,0E0,0E0,0E0,0E0,0E0,0E0,0E0,0E0,0E0,0E0],"parents":[2147483647,0,0,1,1,2,2,3,3,4,4,5,5,6,6,8,8,9,9,10,10,11,11,12,12,13,13,14,14,15,15,18,18,19,19,20,20,23,23,25,25,26,26,31,31,33,33,35,35,36,36,38,38,39,39,41,41,42,42],"right_children":[2,4,6,8,10,12,14,-1,16,18,20,22,24,26,28,30,-1,-1,32,34,36,-1,-1,38,-1,40,42,-1,-1,-1,-1,44,-1,46,-1,48,50,-1,52,54,-1,56,58,-1,-1,-1,-1,-1,-1,-1,-1,-1,-1,-1,-1,-1,-1,-1,-1],"split_conditions":[3.164987E4,4.26E2,1.0184642E0,1E0,1E0,1E0,2.15001E5,-1.3682407E-1,1.0184642E0,5.5150694E8,1.0184642E0,2.8601808E6,1E0,1.078659E5,5E0,1E0,-1.3874742E-1,-1.3685815E-1,5.5277446E8,1E0,1.979432E-2,-1.369054E-1,1.3651195E-1,1.2180601E-2,-1.2319708E-1,2.859E3,1.3915412E0,-1.8360555E-1,-1.3032828E-1,1.3757877E-1,-8.934233E-2,1.4475266E5,-1.3684557E-1,2.473462E4,-1.339268E-1,9.9996966E-1,9.9996966E-1,-1.507034E-1,1.1823005E5,3.516149E4,-1.4257538E-1,1.12374E5,1.12374E5,-1.395589E-1,1.0204559E-1,1.4538789E-1,-1.9844699E-1,-1.6657232E-1,-1.4362775E-1,-1.4011541E-1,-1.3692956E-1,1.3953176E-1,1.3707243E-1,-1.3541096E-1,-1.7876104E-1,-1.3613026E-1,-1.6650034E-1,-1.3694125E-1,-1.4322196E-1],"split_indices":[6,12,8,10,10,10,2,0,8,14,8,1,25,16,18,25,0,0,14,25,9,0,0,9,0,12,8,0,0,0,0,8,0,1,0,21,21,0,19,6,0,2,2,0,0,0,0,0,0,0,0,0,0,0,0,0,0,0,0],"split_type":[0,0,0,0,0,0,0,0,0,0,0,0,0,0,0,0,0,0,0,0,0,0,0,0,0,0,0,0,0,0,0,0,0,0,0,0,0,0,0,0,0,0,0,0,0,0,0,0,0,0,0,0,0,0,0,0,0,0,0],"sum_hessian":[1.5717698E5,7.6260336E4,8.091665E4,7.0097437E3,6.925059E4,7.5493484E4,5.4231675E3,2.2013857E3,4.8083584E3,5.4140664E4,1.5109929E4,3.2631577E3,7.223032E4,4.9676025E3,4.5556534E2,4.3227812E3,4.8557703E2,4.5574312E4,8.566354E3,2.367655E3,1.2742273E4,2.9062131E3,3.5694473E2,7.22255E4,4.825676E0,8.0834076E2,4.1592617E3,4.441646E2,1.140074E1,4.320971E3,1.8098544E0,5.646952E2,8.001658E3,2.328648E3,3.9007164E1,4.7019586E2,1.2272077E4,1.88062E0,7.222362E4,5.805976E2,2.277432E2,3.301676E2,3.829094E3,2.7200488E2,2.9269028E2,2.3263738E3,2.2740471E0,2.0170203E2,2.6849384E2,3.62031E3,8.651768E3,1.1985493E4,6.0238125E4,6.67048E1,5.1389276E2,9.999835E1,2.3016924E2,3.1498022E3,6.792919E2],"tree_param":{"num_deleted":"0","num_feature":"29","num_nodes":"59","size_leaf_vector":"1"}},{"base_weights":[1.1801425E-2,-1.069732E0,1.0438405E0,9.8638403E-1,-1.1815038E0,1.2237625E0,-1.4078797E0,-1.3164902E-1,1.1649662E0,-1.3219802E-1,-7.23378E-1,-1.0323545E0,1.3265063E0,-1.3803211E0,-1.6488266E-1,1.3351265E0,-1.3258325E-1,1.3481678E0,-1.3351912E0,-1.321811E-1,1.3179187E-1,1.3976988E-1,1.3258942E0,-1.5534474E0,-1.3445976E0,1.319228E-1,1.556243E-1,1.3524969E0,-1.591664E-1,-1.360984E0,-1.3238293E-1,-1.0769936E-1,1.3259499E0,-1.6196951E0,-1.3642986E-1,-1.4763471E0,-1.3281852E-1,1.3545454E-1,-1.0685225E-1,-1.3217443E-1,-1.526133E-1,1.3255966E-1,1.4379461E-1,-1.3079111E-1,-1.6592397E-1,-1.316882E-1,-1.5532273E-1],"categories":[],"categories_nodes":[],"categories_segments":[],"categories_sizes":[],"default_left":[0,0,0,0,0,0,0,0,0,0,0,0,0,0,0,0,0,0,0,0,0,0,0,0,0,0,0,0,0,0,0,0,0,0,0,0,0,0,0,0,0,0,0,0,0,0,0],"id":7,"left_children":[1,3,5,7,9,11,13,-1,15,-1,17,19,21,23,-1,25,-1,27,29,-1,-1,-1,31,33,35,-1,-1,37,-1,39,-1,-1,41,43,-1,45,-1,-1,-1,-1,-1,-1,-1,-1,-1,-1,-1],"loss_changes":[1.6393414E5,1.6482492E4,3.315382E4,1.5223616E3,4.376422E3,1.6231445E4,3.184668E1,0E0,1.4565576E3,0E0,2.0235012E4,2.0768376E3,1.0625E0,2.6467773E1,0E0,9.243164E0,0E0,4.8484375E1,1.8105469E0,0E0,0E0,0E0,1.03125E1,7.6063232E0,6.331543E0,0E0,0E0,1.947754E1,0E0,2.2176758E1,0E0,0E0,7.1875E-1,4.9172363E0,0E0,3.0528564E0,0E0,0E0,0E0,0E0,0E0,0E0,0E0,0E0,0E0,0E0,0E0],"parents":[2147483647,0,0,1,1,2,2,3,3,4,4,5,5,6,6,8,8,10,10,11,11,12,12,13,13,15,15,17,17,18,18,22,22,23,23,24,24,27,27,29,29,32,32,33,33,35,35],"right_children":[2,4,6,8,10,12,14,-1,16,-1,18,20,22,24,-1,26,-1,28,30,-1,-1,-1,32,34,36,-1,-1,38,-1,40,-1,-1,42,44,-1,46,-1,-1,-1,-1,-1,-1,-1,-1,-1,-1,-1],"split_conditions":[3.164987E4,1.19E2,1.0184642E0,9.803471E-1,1E0,1E0,2.0287019E5,-1.3164902E-1,1.0184642E0,-1.3219802E-1,1.0184642E0,2.8601808E6,3.292674E4,1.0788443E5,-1.6488266E-1,4.204538E4,-1.3258325E-1,2.473462E4,9.9996966E-1,-1.321811E-1,1.3179187E-1,1.3976988E-1,3.516149E4,2.87E3,1.540753E0,1.319228E-1,1.556243E-1,5.675487E8,-1.591664E-1,4.94504E3,-1.3238293E-1,-1.0769936E-1,1.8760826E7,3.516149E4,-1.3642986E-1,1.0815E5,-1.3281852E-1,1.3545454E-1,-1.0685225E-1,-1.3217443E-1,-1.526133E-1,1.3255966E-1,1.4379461E-1,-1.3079111E-1,-1.6592397E-1,-1.316882E-1,-1.5532273E-1],"split_indices":[6,12,8,8,10,10,6,0,8,0,8,1,19,1,0,1,0,1,21,0,0,0,6,12,8,0,0,14,0,5,0,0,5,6,0,6,0,0,0,0,0,0,0,0,0,0,0],"split_type":[0,0,0,0,0,0,0,0,0,0,0,0,0,0,0,0,0,0,0,0,0,0,0,0,0,0,0,0,0,0,0,0,0,0,0,0,0,0,0,0,0,0,0,0,0,0,0],"sum_hessian":[1.4686808E5,7.171438E4,7.515369E4,3.697041E3,6.801734E4,7.001599E4,5.137693E3,2.6560522E2,3.4314358E3,5.205399E4,1.5963357E4,3.049258E3,6.6966734E4,4.6164136E3,5.212793E2,3.2124402E3,2.1899577E2,3.6394148E3,1.2323942E4,2.715285E3,3.3397318E2,5.512443E2,6.641549E4,7.8236676E2,3.8340469E3,3.0034524E3,2.0898778E2,3.6346025E3,4.812336E0,3.732338E3,8.5916045E3,1.090509E0,6.64144E4,5.738262E2,2.0854057E2,4.1485413E2,3.4191929E3,3.63197E3,2.6324906E0,3.0230579E3,7.0927997E2,6.62183E4,1.9610632E2,6.842357E1,5.0540262E2,1.4084409E2,2.7401004E2],"tree_param":{"num_deleted":"0","num_feature":"29","num_nodes":"47","size_leaf_vector":"1"}},{"base_weights":[1.1143768E-3,-1.0405569E0,1.0085363E0,8.2250506E-1,-1.1545244E0,1.1847906E0,-1.3537371E0,-5.8052784E-1,1.1817117E0,-1.2676927E0,-7.720951E-1,-1.0001216E0,1.2853756E0,-1.332132E0,-1.5936393E-1,-1.279584E-1,1.467766E-1,1.279448E-1,-1.2957703E-1,-8.719189E-1,-1.281636E-1,1.2876322E0,-1.2933491E0,-1.2818949E-1,1.2780151E-1,1.2855918E0,-1.2303821E-1,-1.4739907E0,-1.3038391E0,-1.2855805E-1,1.7132899E-1,1.3228574E0,-1.3306718E-1,-1.315042E0,-1.2836869E-1,1.2987422E0,1.2820123E-1,-1.5273554E0,-1.3198589E-1,-1.40265E0,-1.2877719E-1,1.7625843E-1,-1.3428204E-1,1.3250339E-1,-1.4605747E-1,-1.4517535E-1,-1.2805031E-1,1.2997693E-1,-2.0994845E-1,-1.2669459E-1,-1.5593705E-1,-1.2775987E-1,-1.4631847E-1],"categories":[],"categories_nodes":[],"categories_segments":[],"categories_sizes":[],"default_left":[0,0,0,0,0,0,0,0,0,0,0,0,0,0,0,0,0,0,0,0,0,0,0,0,0,0,0,0,0,0,0,0,0,0,0,0,0,0,0,0,0,0,0,0,0,0,0,0,0,0,0,0,0],"id":8,"left_children":[1,3,5,7,9,11,13,15,17,19,21,23,25,27,-1,-1,-1,-1,-1,29,-1,31,33,-1,-1,35,-1,37,39,-1,41,43,-1,45,-1,47,-1,49,-1,51,-1,-1,-1,-1,-1,-1,-1,-1,-1,-1,-1,-1,-1],"loss_changes":[1.426902E5,1.4195133E4,2.8781617E4,1.9431265E3,2.7254453E3,1.4137727E4,2.2754883E1,1.1277522E3,7.4476465E2,2.6714062E2,1.5448898E4,1.8192078E3,3.503125E1,1.5775391E1,0E0,0E0,0E0,0E0,0E0,7.154791E2,0E0,2.6980273E2,7.1875E-1,0E0,0E0,1.234375E0,0E0,3.9517822E0,4.0444336E0,0E0,1.1383331E3,1.9311523E1,0E0,1.4655762E1,0E0,4.838086E1,0E0,2.4643555E0,0E0,1.9470215E0,0E0,0E0,0E0,0E0,0E0,0E0,0E0,0E0,0E0,0E0,0E0,0E0,0E0],"parents":[2147483647,0,0,1,1,2,2,3,3,4,4,5,5,6,6,7,7,8,8,9,9,10,10,11,11,12,12,13,13,19,19,21,21,22,22,25,25,27,27,28,28,30,30,31,31,33,33,35,35,37,37,39,39],"right_children":[2,4,6,8,10,12,14,16,18,20,22,24,26,28,-1,-1,-1,-1,-1,30,-1,32,34,-1,-1,36,-1,38,40,-1,42,44,-1,46,-1,48,-1,50,-1,52,-1,-1,-1,-1,-1,-1,-1,-1,-1,-1,-1,-1,-1],"split_conditions":[3.164987E4,2.382747E7,1.0184642E0,1E0,1E0,1E0,2.2307848E5,9.2557475E5,1.0184642E0,1.3E1,1.0184642E0,2.8601808E6,1E0,1.078659E5,-1.5936393E-1,-1.279584E-1,1.467766E-1,1.279448E-1,-1.2957703E-1,1.4475266E5,-1.281636E-1,1E0,9.9996966E-1,-1.2818949E-1,1.2780151E-1,1.3126223E5,-1.2303821E-1,2.87E3,1.6244882E0,-1.2855805E-1,4.632041E4,2.473462E4,-1.3306718E-1,1E0,-1.2836869E-1,2.709952E6,1.2820123E-1,3.516149E4,-1.3198589E-1,1.12374E5,-1.2877719E-1,1.7625843E-1,-1.3428204E-1,1.3250339E-1,-1.4605747E-1,-1.4517535E-1,-1.2805031E-1,1.2997693E-1,-2.0994845E-1,-1.2669459E-1,-1.5593705E-1,-1.2775987E-1,-1.4631847E-1],"split_indices":[6,14,8,10,10,10,2,13,8,0,8,1,25,16,0,0,0,0,0,8,0,25,21,0,0,1,0,12,8,0,4,1,0,25,0,4,0,6,0,2,0,0,0,0,0,0,0,0,0,0,0,0,0],"split_type":[0,0,0,0,0,0,0,0,0,0,0,0,0,0,0,0,0,0,0,0,0,0,0,0,0,0,0,0,0,0,0,0,0,0,0,0,0,0,0,0,0,0,0,0,0,0,0,0,0,0,0,0,0],"sum_hessian":[1.3597081E5,6.684906E4,6.912176E4,3.853211E3,6.2995848E4,6.432298E4,4.7987773E3,7.852948E2,3.067916E3,4.8609145E4,1.4386705E4,2.830467E3,6.149251E4,4.408325E3,3.904525E2,5.8575836E2,1.9953647E2,2.9519458E3,1.15970215E2,1.6564122E3,4.695273E4,2.9052366E3,1.1481469E4,2.5193022E3,3.111648E2,6.148772E4,4.7964325E0,7.245226E2,3.6838025E3,1.1859393E3,4.70473E2,2.8671582E3,3.8078293E1,3.4964326E3,7.9850356E3,1.3078722E4,4.8408996E4,5.3156903E2,1.9295355E2,5.0315686E2,3.1806455E3,2.2931567E2,2.4115732E2,2.8654414E3,1.7166914E0,6.969102E2,2.7995225E3,1.3075388E4,3.3345053E0,6.2638844E1,4.689302E2,1.7133063E2,3.3182626E2],"tree_param":{"num_deleted":"0","num_feature":"29","num_nodes":"53","size_leaf_vector":"1"}},{"base_weights":[2.1349942E-2,-9.5191944E-1,9.987222E-1,6.7725927E-1,-1.0826287E0,1.1606387E0,-1.3139797E0,-1.24558486E-1,9.3251973E-1,-1.2030791E0,-7.554887E-1,-9.46552E-1,1.2487245E0,-1.2946225E0,-1.505578E-1,1.2558447E0,-1.2525253E-1,-3.8750833E-1,-1.2234777E0,-9.668948E-1,3.7600788E-1,-1.2468044E-1,1.2439694E-1,1.2490832E0,-1.2013819E-1,-1.4310542E0,-1.2681223E0,1.2570705E0,-8.618412E-2,8.653327E-1,-1.24570645E-1,-1.2486364E-1,-1.1294891E0,4.4347003E-1,-1.0742104E0,1.2510659E0,-1.2487443E-1,-1.3614461E-1,1.2492608E0,-1.4789541E0,-1.284207E-1,-1.2477966E-1,-1.3293741E0,1.24845006E-1,1.4091024E-1,-1.2257409E-1,1.1814624E-1,-2.0070726E-2,-1.17487036E-1,1.00136936E-1,-1.2993515E-1,-8.301751E-2,-1.2498032E-1,1.2593465E-1,-1.0684873E-1,1.2911555E-1,1.2485232E-1,-1.4993268E-1,-1.2581155E-1,-1.272173E-1,-1.4844766E-1],"categories":[],"categories_nodes":[],"categories_segments":[],"categories_sizes":[],"default_left":[0,0,0,0,0,0,0,0,0,0,0,0,0,0,0,0,0,0,0,0,0,0,0,0,0,0,0,0,0,0,0,0,0,0,0,0,0,0,0,0,0,0,0,0,0,0,0,0,0,0,0,0,0,0,0,0,0,0,0,0,0],"id":9,"left_children":[1,3,5,7,9,11,13,-1,15,17,19,21,23,25,-1,27,-1,29,31,33,35,-1,-1,37,-1,39,41,43,-1,45,-1,-1,47,49,51,53,-1,-1,55,57,-1,-1,59,-1,-1,-1,-1,-1,-1,-1,-1,-1,-1,-1,-1,-1,-1,-1,-1,-1,-1],"loss_changes":[1.2201848E5,1.3687176E4,2.3967715E4,2.3444211E3,2.3435547E3,1.1103484E4,1.3584961E1,0E0,2.979518E3,7.2296094E2,3.8310156E3,1.5804595E3,5.1953125E1,1.1962891E1,0E0,1.0616211E1,0E0,1.1435068E3,9.890234E1,2.042749E3,3.5868398E3,0E0,0E0,2.8320312E1,0E0,2.4058838E0,2.3256836E0,3.052246E0,0E0,2.873812E2,0E0,0E0,3.7777637E2,9.296958E2,5.3629004E2,3.2835693E1,0E0,0E0,1.5625E-1,1.6046143E-1,0E0,0E0,5.0494385E0,0E0,0E0,0E0,0E0,0E0,0E0,0E0,0E0,0E0,0E0,0E0,0E0,0E0,0E0,0E0,0E0,0E0,0E0],"parents":[2147483647,0,0,1,1,2,2,3,3,4,4,5,5,6,6,8,8,9,9,10,10,11,11,12,12,13,13,15,15,17,17,18,18,19,19,20,20,23,23,25,25,26,26,27,27,29,29,32,32,33,33,34,34,35,35,38,38,39,39,42,42],"right_children":[2,4,6,8,10,12,14,-1,16,18,20,22,24,26,-1,28,-1,30,32,34,36,-1,-1,38,-1,40,42,44,-1,46,-1,-1,48,50,52,54,-1,-1,56,58,-1,-1,60,-1,-1,-1,-1,-1,-1,-1,-1,-1,-1,-1,-1,-1,-1,-1,-1,-1,-1],"split_conditions":[3.516149E4,2.42E2,1.0184642E0,9.803471E-1,5.90151E3,9.803471E-1,2.2307848E5,-1.24558486E-1,1.0184642E0,9.981115E-1,1E0,2.8601808E6,1E0,1.0788443E5,-1.505578E-1,1E0,-1.2525253E-1,4.131951E-2,5.434573E8,1.5173034E-2,4.94504E3,-1.2468044E-1,1.2439694E-1,1.5173034E-2,-1.2013819E-1,2.87E3,1.12374E5,1.983128E5,-8.618412E-2,9.803471E-1,-1.24570645E-1,-1.2486364E-1,5.447305E8,3.292674E4,-1.168734E4,1.0184642E0,-1.2487443E-1,-1.3614461E-1,4.9704134E-2,1E0,-1.284207E-1,-1.2477966E-1,-2.1098538E5,1.24845006E-1,1.4091024E-1,-1.2257409E-1,1.1814624E-1,-2.0070726E-2,-1.17487036E-1,1.00136936E-1,-1.2993515E-1,-8.301751E-2,-1.2498032E-1,1.2593465E-1,-1.0684873E-1,1.2911555E-1,1.2485232E-1,-1.4993268E-1,-1.2581155E-1,-1.272173E-1,-1.4844766E-1],"split_indices":[6,12,8,8,6,8,2,0,8,21,26,1,25,1,0,25,0,9,14,9,5,0,0,9,0,12,2,1,0,8,0,0,14,19,7,8,0,0,9,25,0,0,7,0,0,0,0,0,0,0,0,0,0,0,0,0,0,0,0,0,0],"split_type":[0,0,0,0,0,0,0,0,0,0,0,0,0,0,0,0,0,0,0,0,0,0,0,0,0,0,0,0,0,0,0,0,0,0,0,0,0,0,0,0,0,0,0,0,0,0,0,0,0,0,0,0,0,0,0,0,0,0,0,0,0],"sum_hessian":[1.2827021E5,6.4270016E4,6.400019E4,4.773114E3,5.9496902E4,5.9813066E4,4.187125E3,5.589249E2,4.214189E3,4.348383E4,1.6013071E4,2.399618E3,5.741345E4,3.8099607E3,3.7716397E2,3.6713572E3,5.4283203E2,1.0615409E3,4.242229E4,1.349234E4,2.5207314E3,2.110733E3,2.8888495E2,5.740554E4,7.912413E0,6.110546E2,3.1989062E3,3.6696394E3,1.7177851E0,4.315435E2,6.299974E2,3.3454883E4,8.967405E3,9.538253E2,1.2538515E4,1.6384995E3,8.82232E2,3.3838446E0,5.7402152E4,4.539199E2,1.5713475E2,2.4179153E3,7.8099084E2,3.4814468E3,1.8819257E2,5.6295246E1,3.7524826E2,4.179985E2,8.549407E3,7.228555E2,2.309698E2,5.2491216E3,7.289393E3,1.6331266E3,5.372985E0,9.627677E2,5.6439387E4,4.102816E2,4.36383E1,5.772908E2,2.0370006E2],"tree_param":{"num_deleted":"0","num_feature":"29","num_nodes":"61","size_leaf_vector":"1"}},{"base_weights":[-3.219315E-3,-1.0015348E0,9.722191E-1,8.5696936E-1,-1.0881132E0,-1.0659992E0,1.0481372E0,1.0498791E0,-1.2134965E-1,-1.2037535E0,-7.119587E-1,-1.2197081E-1,1.2101827E-1,6.4668274E-1,1.16558E0,1.1356331E0,-1.2050038E-1,-1.2191168E-1,-1.1200657E0,-6.719746E-2,-1.22512616E-1,1.0501233E0,-1.2254155E-1,1.2107111E0,1.0494677E0,-1.2003708E-1,1.2023356E0,9.936275E-2,-1.220104E-1,7.7672553E-1,-1.21877074E-1,1.2033406E0,7.1466064E-1,-9.92699E-2,1.2110299E0,7.904915E-1,1.1846712E0,1.2161934E-1,-1.171542E-1,9.517932E-2,-1.2276707E-1,1.2224547E-1,2.9142102E-2,1.20621555E-1,-1.144061E-1,6.4185904E-3,1.0892319E-1,1.2185307E-1,1.1810726E-1,1.004007E-1,-1.332117E-1,7.6643996E-2,1.2044835E-1],"categories":[],"categories_nodes":[],"categories_segments":[],"categories_sizes":[],"default_left":[0,0,0,0,0,0,0,0,0,0,0,0,0,0,0,0,0,0,0,0,0,0,0,0,0,0,0,0,0,0,0,0,0,0,0,0,0,0,0,0,0,0,0,0,0,0,0,0,0,0,0,0,0],"id":10,"left_children":[1,3,5,7,9,11,13,15,-1,17,19,-1,-1,21,23,25,-1,-1,27,29,-1,31,-1,33,35,-1,37,39,-1,41,-1,43,45,-1,47,49,51,-1,-1,-1,-1,-1,-1,-1,-1,-1,-1,-1,-1,-1,-1,-1,-1],"loss_changes":[1.1370987E5,9.286535E3,9.140164E3,1.027458E3,2.3976484E3,7.4368286E2,2.6839102E3,4.559297E2,0E0,5.2859375E1,4.2906523E3,0E0,0E0,9.73674E3,2.2957812E2,3.5439697E2,0E0,0E0,7.9958594E2,5.5872603E3,0E0,5.442285E2,0E0,2.3480469E1,4.3105566E2,0E0,7.388916E1,5.6427765E2,0E0,7.1733374E2,0E0,5.0498047E1,8.106743E2,0E0,5.6835938E0,1.9205723E3,6.6225586E1,0E0,0E0,0E0,0E0,0E0,0E0,0E0,0E0,0E0,0E0,0E0,0E0,0E0,0E0,0E0,0E0],"parents":[2147483647,0,0,1,1,2,2,3,3,4,4,5,5,6,6,7,7,9,9,10,10,13,13,14,14,15,15,18,18,19,19,21,21,23,23,24,24,26,26,27,27,29,29,31,31,32,32,34,34,35,35,36,36],"right_children":[2,4,6,8,10,12,14,16,-1,18,20,-1,-1,22,24,26,-1,-1,28,30,-1,32,-1,34,36,-1,38,40,-1,42,-1,44,46,-1,48,50,52,-1,-1,-1,-1,-1,-1,-1,-1,-1,-1,-1,-1,-1,-1,-1,-1],"split_conditions":[3.516149E4,1.4849436E7,1E0,1E0,1E0,2.8601808E6,1.26733E5,1E0,-1.2134965E-1,5.5150694E8,9.9996966E-1,-1.2197081E-1,1.2101827E-1,9.999919E-1,2.8004246E8,-3.056171E4,-1.2050038E-1,-1.2191168E-1,5.5277446E8,1E0,-1.22512616E-1,9.94E2,-1.2254155E-1,5.1987708E-2,3.3770328E5,-1.2003708E-1,1E0,-1.4922045E5,-1.220104E-1,4.94504E3,-1.21877074E-1,1E0,-5.807347E4,-9.92699E-2,4.728058E7,3.25234E5,9.699814E-1,1.2161934E-1,-1.171542E-1,9.517932E-2,-1.2276707E-1,1.2224547E-1,2.9142102E-2,1.20621555E-1,-1.144061E-1,6.4185904E-3,1.0892319E-1,1.2185307E-1,1.1810726E-1,1.004007E-1,-1.332117E-1,7.6643996E-2,1.2044835E-1],"split_indices":[6,14,10,25,10,1,2,22,0,14,21,0,0,21,14,7,0,0,14,25,0,12,0,9,2,0,24,7,0,5,0,25,7,0,14,1,9,0,0,0,0,0,0,0,0,0,0,0,0,0,0,0,0],"split_type":[0,0,0,0,0,0,0,0,0,0,0,0,0,0,0,0,0,0,0,0,0,0,0,0,0,0,0,0,0,0,0,0,0,0,0,0,0,0,0,0,0,0,0,0,0,0,0,0,0,0,0,0,0],"sum_hessian":[1.1676778E5,5.770717E4,5.906061E4,2.568231E3,5.513894E4,2.120381E3,5.6940227E4,2.349789E3,2.184419E2,4.217192E4,1.296702E4,1.9866858E3,1.3369536E2,1.2888852E4,4.4051375E4,2.264178E3,8.561125E1,3.561937E4,6.55255E3,5.747187E3,7.219832E3,1.060409E4,2.2847617E3,3.1714889E4,1.2336487E4,6.2384872E1,2.201793E3,4.967965E2,6.0557534E3,3.31681E3,2.4303772E3,7.2775815E3,3.3265083E3,4.137814E0,3.171075E4,4.2337603E3,8.1027266E3,2.1894993E3,1.2293722E1,3.0266196E2,1.9413455E2,1.728107E3,1.588703E3,7.2691655E3,8.416352E0,1.2159972E3,2.1105112E3,2.5329113E4,6.3816377E3,3.8472847E3,3.8647562E2,3.6827457E2,7.734452E3],"tree_param":{"num_deleted":"0","num_feature":"29","num_nodes":"53","size_leaf_vector":"1"}},{"base_weights":[-1.094455E-2,-1.1844698E0,7.1310467E-1,-1.1946862E-1,2.6915225E-1,1.1982967E0,-1.225587E0,-1.18422166E-1,1.3125224E-1,1.199909E0,-1.23454824E-1,-1.2194113E0,-1.4307873E-1,1.2161134E0,1.1933931E-1,-1.2784555E0,-1.205309E-1,1.211481E0,1.2877101E0,-1.3253124E0,-1.1965052E-1,1.3658465E-1,1.2093901E-1,1.2937629E-1,-1.3158819E-1,-1.2777238E-1,-1.3674413E-1],"categories":[],"categories_nodes":[],"categories_segments":[],"categories_sizes":[],"default_left":[0,0,0,0,0,0,0,0,0,0,0,0,0,0,0,0,0,0,0,0,0,0,0,0,0,0,0],"id":11,"left_children":[1,3,5,-1,7,9,11,-1,-1,13,-1,15,-1,17,-1,19,-1,21,23,25,-1,-1,-1,-1,-1,-1,-1],"loss_changes":[9.134439E4,6.094844E2,6.253854E4,0E0,4.3691052E2,2.1004688E2,1.5119141E1,0E0,0E0,4.1640625E0,0E0,9.222656E0,0E0,3.4765625E0,0E0,7.9208984E0,0E0,2.9589844E0,1.5996948E1,1.3918457E0,0E0,0E0,0E0,0E0,0E0,0E0,0E0],"parents":[2147483647,0,0,1,1,2,2,4,4,5,5,6,6,9,9,11,11,13,13,15,15,17,17,18,18,19,19],"right_children":[2,4,6,-1,8,10,12,-1,-1,14,-1,16,-1,18,-1,20,-1,22,24,26,-1,-1,-1,-1,-1,-1,-1],"split_conditions":[1E0,2.8601808E6,1.0184642E0,-1.1946862E-1,5.2E1,1E0,2.15001E5,-1.18422166E-1,1.3125224E-1,1.3131966E5,-1.23454824E-1,2.102461E0,-1.4307873E-1,2.2731155E6,1.1933931E-1,1E0,-1.205309E-1,-1.8998242E5,3.939834E8,-1.0679543E5,-1.1965052E-1,1.3658465E-1,1.2093901E-1,1.2937629E-1,-1.3158819E-1,-1.2777238E-1,-1.3674413E-1],"split_indices":[10,16,8,0,2,25,2,0,0,16,0,8,0,4,0,25,0,7,14,7,0,0,0,0,0,0,0],"split_type":[0,0,0,0,0,0,0,0,0,0,0,0,0,0,0,0,0,0,0,0,0,0,0,0,0,0,0],"sum_hessian":[1.075012E5,4.101852E4,6.648268E4,4.0732426E4,2.8609723E2,5.317506E4,1.3307621E4,1.1950142E2,1.6659581E2,5.314035E4,3.470967E1,1.2925553E4,3.820689E2,1.5186525E4,3.7953824E4,2.4746968E3,1.0450855E4,1.428045E4,9.060759E2,1.564811E3,9.0988586E2,1.8213164E2,1.4098318E4,9.044763E2,1.5996246E0,7.4950476E2,8.153062E2],"tree_param":{"num_deleted":"0","num_feature":"29","num_nodes":"27","size_leaf_vector":"1"}},{"base_weights":[2.1834269E-3,-9.05048E-1,9.246982E-1,6.944576E-1,-1.0195007E0,1.0872365E0,-1.2366966E0,-1.1691006E-1,9.2134887E-1,-2.6233894E-1,-1.0601226E0,-1.0223687E0,1.1716728E0,-1.3014609E0,-1.1925613E0,1.1780785E0,-1.1777115E-1,8.839635E-1,-5.9530336E-1,-1.1623998E0,-7.7797467E-1,-1.1708468E-1,1.1600637E-1,1.1697048E0,1.1948467E0,-1.2854558E0,-1.3809462E-1,-1.1813356E0,-1.3555287E-1,1.16914846E-1,1.24773696E-1,-1.15885854E-1,1.2197697E0,-7.796298E-2,-1.17647626E-1,-1.1731362E-1,-4.0316594E-1,-9.274747E-1,1.8677492E-1,1.16983354E-1,-1.6652596E-1,1.1998746E0,-2.218797E-1,-1.2458812E0,-1.3394533E0,-1.332433E-1,-1.1746478E-1,-1.03266016E-1,1.2505098E-1,1.2900911E-1,-1.2064763E-1,-1.169665E-1,9.3652E-2,-1.122499E-1,-5.6925964E-2,1.16487406E-1,-1.17289685E-1,-1.2710093E-1,1.2014679E-1,-1.1806381E-1,-1.2909539E-1,-1.3740383E-1,-1.22659445E-1],"categories":[],"categories_nodes":[],"categories_segments":[],"categories_sizes":[],"default_left":[0,0,0,0,0,0,0,0,0,0,0,0,0,0,0,0,0,0,0,0,0,0,0,0,0,0,0,0,0,0,0,0,0,0,0,0,0,0,0,0,0,0,0,0,0,0,0,0,0,0,0,0,0,0,0,0,0,0,0,0,0,0,0],"id":12,"left_children":[1,3,5,7,9,11,13,-1,15,17,19,21,23,25,27,29,-1,31,33,35,37,-1,-1,39,41,43,-1,45,-1,-1,-1,-1,47,49,-1,-1,51,53,55,-1,-1,57,-1,59,61,-1,-1,-1,-1,-1,-1,-1,-1,-1,-1,-1,-1,-1,-1,-1,-1,-1,-1],"loss_changes":[8.381226E4,9.243652E3,1.744484E4,1.4268876E3,1.448957E3,8.227199E3,8.375977E0,0E0,1.6216526E3,9.167478E2,1.2895508E3,5.774304E2,6.3671875E-1,1.7089844E-3,2.1992188E0,2.0776367E-1,0E0,3.7234805E2,5.59379E2,2.6705078E2,1.716584E3,0E0,0E0,1.6898438E1,6.1519043E1,8.4643555E-1,0E0,4.0698242E-1,0E0,0E0,0E0,0E0,3.347937E1,1.5230771E3,0E0,0E0,4.7258728E2,7.1920215E2,2.1259182E3,0E0,0E0,1.5009766E1,0E0,5.1538086E-1,2.0568848E-1,0E0,0E0,0E0,0E0,0E0,0E0,0E0,0E0,0E0,0E0,0E0,0E0,0E0,0E0,0E0,0E0,0E0,0E0],"parents":[2147483647,0,0,1,1,2,2,3,3,4,4,5,5,6,6,8,8,9,9,10,10,11,11,12,12,13,13,14,14,15,15,17,17,18,18,19,19,20,20,23,23,24,24,25,25,27,27,32,32,33,33,36,36,37,37,38,38,41,41,43,43,44,44],"right_children":[2,4,6,8,10,12,14,-1,16,18,20,22,24,26,28,30,-1,32,34,36,38,-1,-1,40,42,44,-1,46,-1,-1,-1,-1,48,50,-1,-1,52,54,56,-1,-1,58,-1,60,62,-1,-1,-1,-1,-1,-1,-1,-1,-1,-1,-1,-1,-1,-1,-1,-1,-1,-1],"split_conditions":[3.516149E4,2.22E2,1.0184642E0,9.803471E-1,1.4E1,9.803471E-1,2.102461E0,-1.1691006E-1,1.0184642E0,9.9952465E-1,5.90151E3,2.8601808E6,2.3639758E6,2.2307848E5,2.15001E5,6.048808E5,-1.1777115E-1,2.17918E3,-1.168734E4,5.67E2,1E0,-1.1708468E-1,1.1600637E-1,4E0,4.453471E8,-1.0679543E5,-1.3809462E-1,9.999909E-1,-1.3555287E-1,1.16914846E-1,1.24773696E-1,-1.15885854E-1,1.58E2,1.959614E5,-1.17647626E-1,-1.1731362E-1,3.56651E3,1.523889E4,4.94504E3,1.16983354E-1,-1.6652596E-1,2.1601147E5,-2.218797E-1,1.12374E5,2.87E3,-1.332433E-1,-1.1746478E-1,-1.03266016E-1,1.2505098E-1,1.2900911E-1,-1.2064763E-1,-1.169665E-1,9.3652E-2,-1.122499E-1,-5.6925964E-2,1.16487406E-1,-1.17289685E-1,-1.2710093E-1,1.2014679E-1,-1.1806381E-1,-1.2909539E-1,-1.3740383E-1,-1.22659445E-1],"split_indices":[6,12,8,8,0,8,8,0,8,21,6,1,4,2,2,13,0,4,7,0,26,0,0,18,14,7,0,21,0,0,0,0,6,5,0,0,6,4,5,0,0,19,0,2,12,0,0,0,0,0,0,0,0,0,0,0,0,0,0,0,0,0,0],"split_type":[0,0,0,0,0,0,0,0,0,0,0,0,0,0,0,0,0,0,0,0,0,0,0,0,0,0,0,0,0,0,0,0,0,0,0,0,0,0,0,0,0,0,0,0,0,0,0,0,0,0,0,0,0,0,0,0,0,0,0,0,0,0,0],"sum_hessian":[1.0013997E5,5.0488215E4,4.9651758E4,3.3711045E3,4.711711E4,4.6179523E4,3.4722354E3,3.654391E2,3.0056655E3,2.3995095E3,4.4717598E4,1.7767614E3,4.440276E4,1.3956975E3,2.0765378E3,2.6785046E3,3.2716092E2,5.39727E2,1.8597825E3,3.2818098E4,1.1899502E4,1.6640162E3,1.127451E2,4.0974527E4,3.428232E3,1.1760604E3,2.1963708E2,1.9504354E3,1.26102486E2,2.3899087E3,2.8859583E2,7.585069E1,4.638763E2,9.845256E2,8.7525696E2,3.2359941E4,4.581553E2,1.0302967E4,1.596535E3,4.0973254E4,1.2732892E0,3.4238374E3,4.3943386E0,6.925584E2,4.8350198E2,7.426848E1,1.876167E3,5.806696E0,4.580696E2,4.4496643E2,5.3955914E2,2.9150064E2,1.6665468E2,6.6696514E3,3.6333152E3,9.286446E2,6.678904E2,1.692886E0,3.4221445E3,2.9407532E2,3.9848312E2,3.6153638E2,1.2196561E2],"tree_param":{"num_deleted":"0","num_feature":"29","num_nodes":"63","size_leaf_vector":"1"}},{"base_weights":[1.4551666E-3,-1.1372149E0,6.911057E-1,-1.1540245E-1,1.1918133E0,1.1557902E0,-1.1796694E0,-6.418629E-2,1.2029121E-1,1.1574541E0,-1.1896031E-1,-1.2275516E0,-1.1661427E0,1.2322899E0,1.1553861E0,-1.2620555E-1,-1.1549725E-1,-1.1642145E-1,-1.3067E-1,1.1895885E0,1.2959968E-1,1.1953907E0,1.1527979E0,1.1982397E-1,-1.5813187E-1,1.1659248E-1,1.2739757E-1,-2.2656296E-1,1.15301445E-1],"categories":[],"categories_nodes":[],"categories_segments":[],"categories_sizes":[],"default_left":[0,0,0,0,0,0,0,0,0,0,0,0,0,0,0,0,0,0,0,0,0,0,0,0,0,0,0,0,0],"id":13,"left_children":[1,3,5,-1,7,9,11,-1,-1,13,-1,15,17,19,21,-1,-1,-1,-1,23,-1,25,27,-1,-1,-1,-1,-1,-1],"loss_changes":[7.2544305E4,1.3656016E3,5.0016516E4,0E0,5.8638306E0,1.8123438E2,5.984375E0,0E0,0E0,5.7070312E0,0E0,4.8100586E0,9.0234375E-1,1.786499E0,3.2617188E0,0E0,0E0,0E0,0E0,1.9745728E1,0E0,4.760254E0,3.378125E1,0E0,0E0,0E0,0E0,0E0,0E0],"parents":[2147483647,0,0,1,1,2,2,4,4,5,5,6,6,9,9,11,11,12,12,13,13,14,14,19,19,21,21,22,22],"right_children":[2,4,6,-1,8,10,12,-1,-1,14,-1,16,18,20,22,-1,-1,-1,-1,24,-1,26,28,-1,-1,-1,-1,-1,-1],"split_conditions":[1E0,7.2867994E5,1.0184642E0,-1.1540245E-1,2.8601808E6,1E0,2.218215E0,-6.418629E-2,1.2029121E-1,1.5173034E-2,-1.1896031E-1,1E0,2.15001E5,1.2180601E-2,1.96088E4,-1.2620555E-1,-1.1549725E-1,-1.1642145E-1,-1.3067E-1,1.034108E4,1.2959968E-1,2.416E3,2.6351077E-2,1.1982397E-1,-1.5813187E-1,1.1659248E-1,1.2739757E-1,-2.2656296E-1,1.15301445E-1],"split_indices":[10,9,8,0,1,25,8,0,0,9,0,25,2,9,1,0,0,0,0,1,0,12,9,0,0,0,0,0,0],"split_type":[0,0,0,0,0,0,0,0,0,0,0,0,0,0,0,0,0,0,0,0,0,0,0,0,0,0,0,0,0],"sum_hessian":[9.237765E4,3.4845008E4,5.753264E4,3.459582E4,2.4918893E2,4.6085723E4,1.1446917E4,1.1572803E0,2.4803165E2,4.6053555E4,3.2166183E1,2.5016675E3,8.945249E3,1.2224727E3,4.4831082E4,1.684482E3,8.171853E2,8.833356E3,1.11892586E2,7.43676E2,4.7879663E2,2.6961316E3,4.2134953E4,7.419272E2,1.7488306E0,1.9724038E3,7.237279E2,2.0047235E0,4.2132945E4],"tree_param":{"num_deleted":"0","num_feature":"29","num_nodes":"29","size_leaf_vector":"1"}},{"base_weights":[8.536625E-3,-8.883997E-1,8.8525367E-1,6.3401324E-1,-1.0145088E0,1.048492E0,-1.1833843E0,-7.011962E-1,1.0218147E0,-1.1151979E0,-6.834014E-1,-8.934855E-1,1.1377755E0,-1.2349178E-1,-1.1533953E0,-1.1349932E-1,1.2108792E-1,1.1412457E0,-1.145754E-1,-5.7479244E-1,-1.1365938E-1,1.1585976E0,-1.1498564E0,-1.1382537E-1,1.12854496E-1,1.1380655E0,-1.1134571E-1,-1.1451041E-1,-1.2585744E-1,1.14239074E-1,-6.705107E-2,-1.143344E-1,5.2169853E-1,1.1887109E0,-1.1273836E-1,-1.22148275E-1,-1.1465235E-1,-1.2963755E-1,1.1382173E0,1.7438227E-1,-1.1920102E-1,1.1935314E-1,-1.7736101E-1,1.2537889E-1,1.13637745E-1],"categories":[],"categories_nodes":[],"categories_segments":[],"categories_sizes":[],"default_left":[0,0,0,0,0,0,0,0,0,0,0,0,0,0,0,0,0,0,0,0,0,0,0,0,0,0,0,0,0,0,0,0,0,0,0,0,0,0,0,0,0,0,0,0,0],"id":14,"left_children":[1,3,5,7,9,11,13,15,17,19,21,23,25,-1,27,-1,-1,29,-1,31,-1,33,35,-1,-1,37,-1,-1,-1,-1,-1,-1,39,41,-1,-1,-1,-1,43,-1,-1,-1,-1,-1,-1],"loss_changes":[6.712586E4,8.1016445E3,1.4578238E4,1.6723958E3,1.2983633E3,6.9384297E3,3.4560547E0,6.0457434E2,6.490703E2,3.4482422E2,7.8109062E3,8.719852E2,2.6238281E1,0E0,3.1274414E-1,0E0,0E0,5.6867676E0,0E0,7.1125525E2,0E0,1.2780371E2,3.310547E-1,0E0,0E0,1.5609375E1,0E0,0E0,0E0,0E0,0E0,0E0,8.187524E2,2.8016602E1,0E0,0E0,0E0,0E0,6.7148438E0,0E0,0E0,0E0,0E0,0E0,0E0],"parents":[2147483647,0,0,1,1,2,2,3,3,4,4,5,5,6,6,7,7,8,8,9,9,10,10,11,11,12,12,14,14,17,17,19,19,21,21,22,22,25,25,32,32,33,33,38,38],"right_children":[2,4,6,8,10,12,14,16,18,20,22,24,26,-1,28,-1,-1,30,-1,32,-1,34,36,-1,-1,38,-1,-1,-1,-1,-1,-1,40,42,-1,-1,-1,-1,44,-1,-1,-1,-1,-1,-1],"split_conditions":[3.164987E4,2.42E2,1.0184642E0,1E0,1E0,1E0,2.0001934E0,7.2867994E5,1.0184642E0,1.3E1,1.0184642E0,2.8601808E6,1E0,-1.2349178E-1,2.0287019E5,-1.1349932E-1,1.2108792E-1,1E0,-1.145754E-1,1.4475266E5,-1.1365938E-1,1E0,1.979432E-2,-1.1382537E-1,1.12854496E-1,1.06749E-2,-1.1134571E-1,-1.1451041E-1,-1.2585744E-1,1.14239074E-1,-6.705107E-2,-1.143344E-1,1.5037798E5,2.769138E4,-1.1273836E-1,-1.22148275E-1,-1.1465235E-1,-1.2963755E-1,1.979432E-2,1.7438227E-1,-1.1920102E-1,1.1935314E-1,-1.7736101E-1,1.2537889E-1,1.13637745E-1],"split_indices":[6,12,8,10,10,10,8,9,8,0,8,1,25,0,6,0,0,25,0,8,0,25,9,0,0,9,0,0,0,0,0,0,19,19,0,0,0,0,9,0,0,0,0,0,0],"split_type":[0,0,0,0,0,0,0,0,0,0,0,0,0,0,0,0,0,0,0,0,0,0,0,0,0,0,0,0,0,0,0,0,0,0,0,0,0,0,0,0,0,0,0,0,0],"sum_hessian":[8.536082E4,4.2193855E4,4.316697E4,3.22745E3,3.8966406E4,4.0010215E4,3.1567524E3,7.262267E2,2.5012231E3,2.9878154E4,9.088252E3,1.7582444E3,3.8251973E4,1.1464711E3,2.0102814E3,5.9226465E2,1.3396205E2,2.371054E3,1.3016936E2,1.1389513E3,2.8739203E4,1.8361072E3,7.2521445E3,1.5687795E3,1.8946483E2,3.824754E4,4.432136E0,1.87441E3,1.3587132E2,2.3699255E3,1.1282853E0,7.500127E2,3.889386E2,1.8127083E3,2.3398888E1,3.062048E2,6.94594E3,1.8524715E0,3.8245688E4,2.2702156E2,1.6191704E2,1.8103594E3,2.3488426E0,5.886613E2,3.7657023E4],"tree_param":{"num_deleted":"0","num_feature":"29","num_nodes":"45","size_leaf_vector":"1"}},{"base_weights":[1.5006264E-2,-1.0856144E0,6.774333E-1,-1.1017652E0,1.1452172E0,1.0606962E0,2.1662933E-1,-5.9798026E-1,-1.122025E-1,-6.375087E-2,1.1585378E-1,1.0816909E0,-1.1186718E-1,-4.4437043E-2,8.5437787E-1,-1.1240069E-1,2.9225507E-1,1.1087703E0,8.731238E-1,-3.0244163E-1,7.678116E-1,7.417219E-2,9.2636204E-1,-1.1319645E-1,9.547356E-1,1.117665E0,1.0083911E0,1.0728884E0,4.2347005E-1,-1.1327776E0,-1.5013753E-1,1.0911015E0,-1.1492484E-1,-1.1501223E-1,9.4428825E-1,7.670241E-1,1.1187586E0,-1.2243503E-1,1.6180697E-1,1.12310365E-1,1.0823001E-1,7.647926E-2,1.1251362E-1,1.0802444E-1,-1.0303455E-1,6.3108824E-2,-1.16532676E-1,-1.2274996E-1,-1.1223735E-1,7.09612E-2,-2.9338045E-2,1.1264946E-1,2.8784081E-2,1.1268812E-1,-1.1024336E-1,-1.1410085E-1,1.0798569E-1,-8.798948E-2,1.12136446E-1],"categories":[],"categories_nodes":[],"categories_segments":[],"categories_sizes":[],"default_left":[0,0,0,0,0,0,0,0,0,0,0,0,0,0,0,0,0,0,0,0,0,0,0,0,0,0,0,0,0,0,0,0,0,0,0,0,0,0,0,0,0,0,0,0,0,0,0,0,0,0,0,0,0,0,0,0,0,0,0],"id":15,"left_children":[1,3,5,7,9,11,13,15,-1,-1,-1,17,-1,19,21,-1,23,25,27,29,31,33,35,-1,37,39,41,43,45,47,49,51,-1,-1,53,55,57,-1,-1,-1,-1,-1,-1,-1,-1,-1,-1,-1,-1,-1,-1,-1,-1,-1,-1,-1,-1,-1,-1],"loss_changes":[5.7302062E4,1.0652266E3,8.665018E3,2.9857422E2,5.790619E0,1.226791E3,3.7095166E3,5.321209E2,0E0,0E0,0E0,1.4887305E2,0E0,3.3133298E3,3.633794E2,0E0,3.9979352E2,1.9835938E1,2.7382422E2,1.5172705E3,2.3634653E3,5.8456213E2,1.8076855E2,0E0,4.1966696E2,2.9296875E0,5.3780273E1,3.381299E1,3.111098E2,4.5507812E-1,1.2490287E3,9.24126E1,0E0,0E0,1.2110141E2,1.9375176E3,1.4953613E1,0E0,0E0,0E0,0E0,0E0,0E0,0E0,0E0,0E0,0E0,0E0,0E0,0E0,0E0,0E0,0E0,0E0,0E0,0E0,0E0,0E0,0E0],"parents":[2147483647,0,0,1,1,2,2,3,3,4,4,5,5,6,6,7,7,11,11,13,13,14,14,16,16,17,17,18,18,19,19,20,20,21,21,22,22,24,24,25,25,26,26,27,27,28,28,29,29,30,30,31,31,34,34,35,35,36,36],"right_children":[2,4,6,8,10,12,14,16,-1,-1,-1,18,-1,20,22,-1,24,26,28,30,32,34,36,-1,38,40,42,44,46,48,50,52,-1,-1,54,56,58,-1,-1,-1,-1,-1,-1,-1,-1,-1,-1,-1,-1,-1,-1,-1,-1,-1,-1,-1,-1,-1,-1],"split_conditions":[1E0,7.2867994E5,9.11E2,1.3E1,3.97E2,1E0,5.6996925E5,1.2E1,-1.122025E-1,-6.375087E-2,1.1585378E-1,3.19E2,-1.1186718E-1,1E0,9.699814E-1,-1.1240069E-1,1E0,2.977864E7,1.377927E5,3.260324E4,1.4224536E5,1E0,-4.250615E5,-1.1319645E-1,3.057746E0,6.7E1,-2.420461E4,5.94E2,2E0,1E0,9.9996966E-1,4.94504E3,-1.1492484E-1,-1.1501223E-1,3.404661E8,1E0,1.7E1,-1.2243503E-1,1.6180697E-1,1.12310365E-1,1.0823001E-1,7.647926E-2,1.1251362E-1,1.0802444E-1,-1.0303455E-1,6.3108824E-2,-1.16532676E-1,-1.2274996E-1,-1.1223735E-1,7.09612E-2,-2.9338045E-2,1.1264946E-1,2.8784081E-2,1.1268812E-1,-1.1024336E-1,-1.1410085E-1,1.0798569E-1,-8.798948E-2,1.12136446E-1],"split_indices":[10,9,12,0,0,25,16,0,0,0,0,12,0,26,9,0,23,14,5,5,5,23,7,0,9,12,7,0,18,25,21,5,0,0,14,23,0,0,0,0,0,0,0,0,0,0,0,0,0,0,0,0,0,0,0,0,0,0,0],"split_type":[0,0,0,0,0,0,0,0,0,0,0,0,0,0,0,0,0,0,0,0,0,0,0,0,0,0,0,0,0,0,0,0,0,0,0,0,0,0,0,0,0,0,0,0,0,0,0,0,0,0,0,0,0,0,0,0,0,0,0],"sum_hessian":[7.859292E4,2.952935E4,4.906357E4,2.9317604E4,2.117474E2,2.678471E4,2.2278861E4,1.134611E3,2.8182992E4,1.2229044E0,2.105245E2,2.6529645E4,2.5506615E2,1.5808487E4,6.4703735E3,7.130298E2,4.2158115E2,2.3477166E4,3.0524792E3,1.1998032E4,3.8104558E3,5.467218E2,5.923652E3,1.3361758E2,2.8796356E2,2.155683E4,1.9203357E3,2.1125605E3,9.399186E2,1.8586349E3,1.0139397E4,3.2609631E3,5.494927E2,2.2700009E2,3.1972168E2,3.2429277E3,2.6807239E3,6.700454E1,2.2095903E2,1.8656945E4,2.8998853E3,6.2460126E2,1.2957344E3,2.1056824E3,6.878217E0,8.318219E2,1.0809669E2,1.723689E2,1.686266E3,1.4474988E3,8.691898E3,3.1229578E3,1.3800543E2,2.9394736E2,2.577432E1,4.5642847E2,2.7864993E3,3.052276E0,2.6776716E3],"tree_param":{"num_deleted":"0","num_feature":"29","num_nodes":"59","size_leaf_vector":"1"}},{"base_weights":[-7.0682955E-3,-8.840192E-1,8.681123E-1,2.166785E-1,-9.882021E-1,1.0295384E0,-1.1597109E0,-8.742035E-1,8.333617E-1,-1.5330818E-1,-1.0384494E0,-8.323218E-1,1.1099066E0,-1.2020103E-1,-1.1294216E-1,-1.1081938E-1,1.163339E-1,1.1187811E-1,-1.134809E-1,-1.1127158E-1,5.1263946E-1,-1.0553534E0,-5.5225126E-2,-1.10948145E-1,1.1117508E-1,-1.1864175E-1,1.1100636E0,-1.13841906E-1,8.689775E-1,-1.10895626E-1,-8.7161744E-1,8.7575537E-1,-1.1224719E-1,1.208928E-1,1.1088076E0,9.7539164E-2,-1.1076192E-1,1.09318934E-1,-1.12817846E-1,-1.08559966E-1,1.2086838E-1,-1.7062742E-1,1.10897996E-1],"categories":[],"categories_nodes":[],"categories_segments":[],"categories_sizes":[],"default_left":[0,0,0,0,0,0,0,0,0,0,0,0,0,0,0,0,0,0,0,0,0,0,0,0,0,0,0,0,0,0,0,0,0,0,0,0,0,0,0,0,0,0,0],"id":16,"left_children":[1,3,5,7,9,11,13,15,17,19,21,23,25,-1,-1,-1,-1,-1,-1,-1,27,29,31,-1,-1,-1,33,-1,35,-1,37,39,-1,-1,41,-1,-1,-1,-1,-1,-1,-1,-1],"loss_changes":[5.4767117E4,4.0875684E3,1.1692398E4,2.0746187E3,1.365832E3,4.9511953E3,2.0166016E0,5.3232697E2,1.1079071E3,1.1823141E3,5.1040234E2,7.391467E2,1.27421875E1,0E0,0E0,0E0,0E0,0E0,0E0,0E0,6.437239E2,2.9640625E2,5.17805E2,0E0,0E0,0E0,2.6015625E0,0E0,1.9019629E2,0E0,3.4411157E3,1.8308945E2,0E0,0E0,1.7101562E1,0E0,0E0,0E0,0E0,0E0,0E0,0E0,0E0],"parents":[2147483647,0,0,1,1,2,2,3,3,4,4,5,5,6,6,7,7,8,8,9,9,10,10,11,11,12,12,20,20,21,21,22,22,26,26,28,28,30,30,31,31,34,34],"right_children":[2,4,6,8,10,12,14,16,18,20,22,24,26,-1,-1,-1,-1,-1,-1,-1,28,30,32,-1,-1,-1,34,-1,36,-1,38,40,-1,-1,42,-1,-1,-1,-1,-1,-1,-1,-1],"split_conditions":[3.516149E4,4.26E2,1.0184642E0,1E0,1.4E1,1E0,2.102461E0,7.2867994E5,1.0184642E0,1E0,3.164987E4,2.8601808E6,1.2180601E-2,-1.2020103E-1,-1.1294216E-1,-1.1081938E-1,1.163339E-1,1.1187811E-1,-1.134809E-1,-1.1127158E-1,-1.7824195E5,1E0,3.292674E4,-1.10948145E-1,1.1117508E-1,-1.1864175E-1,1.979432E-2,-1.13841906E-1,9.0588225E5,-1.10895626E-1,1.0184642E0,1E0,-1.1224719E-1,1.208928E-1,2.6351077E-2,9.7539164E-2,-1.1076192E-1,1.09318934E-1,-1.12817846E-1,-1.08559966E-1,1.2086838E-1,-1.7062742E-1,1.10897996E-1],"split_indices":[6,12,8,10,0,10,8,9,8,23,6,1,9,0,0,0,0,0,0,0,7,10,19,0,0,0,9,0,4,0,8,10,0,0,9,0,0,0,0,0,0,0,0],"split_type":[0,0,0,0,0,0,0,0,0,0,0,0,0,0,0,0,0,0,0,0,0,0,0,0,0,0,0,0,0,0,0,0,0,0,0,0,0,0,0,0,0,0,0],"sum_hessian":[7.13567E4,3.5642297E4,3.5714406E4,3.0818035E3,3.2560494E4,3.308143E4,2.6329744E3,1.1128353E3,1.9689681E3,1.8486093E3,3.0711885E4,1.3685024E3,3.1712928E4,1.082525E3,1.5504495E3,9.9861145E2,1.1422387E2,1.7199733E3,2.4899486E2,7.571454E2,1.0914639E3,3.0192727E4,5.1915826E2,1.19812E3,1.703825E2,1.6509756E0,3.1711277E4,1.933589E2,8.98105E2,2.336982E4,6.822906E3,2.773766E2,2.4178166E2,3.8576813E2,3.1325508E4,8.527044E2,4.540058E1,7.8764764E2,6.035258E3,3.9922634E1,2.3745395E2,1.3125159E0,3.1324195E4],"tree_param":{"num_deleted":"0","num_feature":"29","num_nodes":"43","size_leaf_vector":"1"}},{"base_weights":[-1.9482571E-3,-8.4756017E-1,8.559435E-1,5.7009125E-1,-9.5580035E-1,-8.22531E-1,9.2261505E-1,-6.761836E-1,9.6314865E-1,-1.0980437E-1,-5.5142015E-1,-1.097993E-1,1.0987999E-1,3.0400962E-1,1.002519E0,-1.0954087E-1,1.1435824E-1,1.0415817E0,-1.1005362E-1,7.966454E-2,-1.1099907E-1,9.4927305E-1,-1.1259959E0,1.0822325E0,8.028891E-1,1.085832E0,-1.0687629E-1,7.160976E-1,-1.0969833E-1,9.7287244E-1,-1.1155585E-1,-1.20719746E-1,-1.1036072E-1,-1.026481E-1,1.0830731E0,4.5010203E-1,1.047497E0,-7.64899E-2,1.0881294E-1,7.8156E-2,-1.2328585E-1,9.89058E-2,-1.3392209E-1,1.0941776E-1,9.90599E-2,-1.1533087E-1,8.110832E-2,8.730023E-2,1.0934093E-1],"categories":[],"categories_nodes":[],"categories_segments":[],"categories_sizes":[],"default_left":[0,0,0,0,0,0,0,0,0,0,0,0,0,0,0,0,0,0,0,0,0,0,0,0,0,0,0,0,0,0,0,0,0,0,0,0,0,0,0,0,0,0,0,0,0,0,0,0,0],"id":17,"left_children":[1,3,5,7,9,11,13,15,17,-1,19,-1,-1,21,23,-1,-1,25,-1,27,-1,29,31,33,35,37,-1,39,-1,41,-1,-1,-1,-1,43,45,47,-1,-1,-1,-1,-1,-1,-1,-1,-1,-1,-1,-1],"loss_changes":[4.7693305E4,5.0809863E3,3.6528145E3,1.1514355E3,1.7687539E3,6.613508E2,1.5511992E3,4.3141125E2,2.9029004E2,0E0,2.8224487E3,0E0,0E0,3.3155496E3,4.4148047E2,0E0,0E0,1.6191736E2,0E0,2.8166433E3,0E0,1.2172339E2,6.989746E-1,3.632422E1,6.8437695E2,8.003784E0,0E0,3.1238098E2,0E0,9.294507E1,0E0,0E0,0E0,0E0,1.9302734E1,1.8827805E3,3.6586426E1,0E0,0E0,0E0,0E0,0E0,0E0,0E0,0E0,0E0,0E0,0E0,0E0],"parents":[2147483647,0,0,1,1,2,2,3,3,4,4,5,5,6,6,7,7,8,8,10,10,13,13,14,14,17,17,19,19,21,21,22,22,23,23,24,24,25,25,27,27,29,29,34,34,35,35,36,36],"right_children":[2,4,6,8,10,12,14,16,18,-1,20,-1,-1,22,24,-1,-1,26,-1,28,-1,30,32,34,36,38,-1,40,-1,42,-1,-1,-1,-1,44,46,48,-1,-1,-1,-1,-1,-1,-1,-1,-1,-1,-1,-1],"split_conditions":[3.516149E4,2.42E2,1E0,1E0,1E0,2.8601808E6,7.6587E4,7.2867994E5,3.203801E4,-1.0980437E-1,9.9996966E-1,-1.097993E-1,1.0987999E-1,9.9998635E-1,2.8004246E8,-1.0954087E-1,1.1435824E-1,1E0,-1.1005362E-1,1E0,-1.1099907E-1,1E0,9.999909E-1,4.757608E-2,3.1029697E5,2E2,-1.0687629E-1,5.4848646E8,-1.0969833E-1,3.238E3,-1.1155585E-1,-1.20719746E-1,-1.1036072E-1,-1.026481E-1,7.059881E7,-2.246466E5,6.04979E5,-7.64899E-2,1.0881294E-1,7.8156E-2,-1.2328585E-1,9.89058E-2,-1.3392209E-1,1.0941776E-1,9.90599E-2,-1.1533087E-1,8.110832E-2,8.730023E-2,1.0934093E-1],"split_indices":[6,12,10,10,10,1,2,9,1,0,21,0,0,21,14,0,0,25,0,25,0,25,21,9,2,2,0,14,0,12,0,0,0,0,14,7,2,0,0,0,0,0,0,0,0,0,0,0,0],"split_type":[0,0,0,0,0,0,0,0,0,0,0,0,0,0,0,0,0,0,0,0,0,0,0,0,0,0,0,0,0,0,0,0,0,0,0,0,0,0,0,0,0,0,0,0,0,0,0,0,0],"sum_hessian":[6.5741664E4,3.310779E4,3.2633871E4,2.348222E3,3.0759566E4,1.2463116E3,3.138756E4,5.628529E2,1.7853689E3,2.275399E4,8.0055757E3,1.090408E3,1.559037E2,3.5910366E3,2.7796523E4,4.5778876E2,1.0506415E2,1.7204752E3,6.489367E1,3.7592048E3,4.2463706E3,2.4747073E3,1.1163295E3,1.9861344E4,7.9351797E3,1.6856163E3,3.4858944E1,2.4398916E3,1.3193132E3,2.4472659E3,2.744147E1,2.298321E2,8.8649744E2,7.4294224E0,1.9853914E4,3.250282E3,4.684898E3,1.6783106E0,1.683938E3,2.3611821E3,7.8709496E1,2.4308213E3,1.6444532E1,1.7715744E4,2.138171E3,5.968759E2,2.6534062E3,9.800652E2,3.7048328E3],"tree_param":{"num_deleted":"0","num_feature":"29","num_nodes":"49","size_leaf_vector":"1"}},{"base_weights":[5.5162846E-3,-8.561804E-1,8.328148E-1,3.005016E-1,-9.783275E-1,9.018294E-1,-8.3516186E-1,-1.0859691E-1,6.3584757E-1,-1.0638074E0,-7.39819E-1,4.580091E-1,1.0166137E0,-1.0871076E-1,1.0872177E-1,9.2883676E-1,-1.08494475E-1,9.798156E-2,-1.0773107E0,-8.7543184E-1,1.831463E-1,8.773665E-1,-1.0984526E-1,1.0738237E0,8.717624E-1,1.0433202E0,-1.097937E-1,1.1250852E0,-1.09085694E-1,-6.7354053E-1,-1.08934484E-1,-4.223674E-1,-1.09438434E-1,1.0880841E0,-1.08868554E-1,4.8098832E-1,1.0457616E0,-9.781327E-2,1.0744376E0,5.6052405E-1,1.0352287E0,1.0725639E-1,-1.0491013E-1,-7.713242E-2,1.1664017E-1,7.75426E-2,-1.092567E-1,6.336007E-2,-1.1215898E-1,1.1001744E-1,-8.5032575E-2,-5.175683E-2,9.812826E-2,1.0716083E-1,-1.0980977E-1,1.083653E-1,1.0109692E-1,-1.129187E-1,7.6506175E-2,1.677417E-2,1.065241E-1],"categories":[],"categories_nodes":[],"categories_segments":[],"categories_sizes":[],"default_left":[0,0,0,0,0,0,0,0,0,0,0,0,0,0,0,0,0,0,0,0,0,0,0,0,0,0,0,0,0,0,0,0,0,0,0,0,0,0,0,0,0,0,0,0,0,0,0,0,0,0,0,0,0,0,0,0,0,0,0,0,0],"id":18,"left_children":[1,3,5,7,9,11,13,-1,15,17,19,21,23,-1,-1,25,-1,27,29,31,33,35,-1,37,39,41,-1,43,-1,45,-1,47,-1,49,-1,51,53,-1,55,57,59,-1,-1,-1,-1,-1,-1,-1,-1,-1,-1,-1,-1,-1,-1,-1,-1,-1,-1,-1,-1],"loss_changes":[4.3383914E4,4.2118516E3,3.5748691E3,1.3248391E3,5.489043E2,1.5184277E3,5.9891895E2,0E0,1.1575361E3,3.1145117E2,8.9094434E2,4.0010283E3,1.9536523E2,0E0,0E0,4.5609082E2,0E0,2.8077075E2,9.459375E1,6.1509863E2,1.0514675E3,3.2177075E2,0E0,2.2439453E1,3.4091064E2,1.14717896E2,0E0,1.0561707E1,0E0,3.4717337E2,0E0,1.4946953E3,0E0,1.3442993E1,0E0,7.206156E2,1.888982E2,0E0,8.830078E0,8.004367E2,1.14365234E2,0E0,0E0,0E0,0E0,0E0,0E0,0E0,0E0,0E0,0E0,0E0,0E0,0E0,0E0,0E0,0E0,0E0,0E0,0E0,0E0],"parents":[2147483647,0,0,1,1,2,2,3,3,4,4,5,5,6,6,8,8,9,9,10,10,11,11,12,12,15,15,17,17,18,18,19,19,20,20,21,21,23,23,24,24,25,25,27,27,29,29,31,31,33,33,35,35,36,36,38,38,39,39,40,40],"right_children":[2,4,6,8,10,12,14,-1,16,18,20,22,24,-1,-1,26,-1,28,30,32,34,36,-1,38,40,42,-1,44,-1,46,-1,48,-1,50,-1,52,54,-1,56,58,60,-1,-1,-1,-1,-1,-1,-1,-1,-1,-1,-1,-1,-1,-1,-1,-1,-1,-1,-1,-1],"split_conditions":[3.164987E4,4.26E2,4.1876E2,1.91E2,5.90151E3,1.0815E5,2.8601808E6,-1.0859691E-1,1E0,1.0771113E-3,1E0,1.078659E5,2.8004246E8,-1.0871076E-1,1.0872177E-1,3.203801E4,-1.08494475E-1,1.4E1,1.2E1,1.1146767E0,4.94504E3,-5.208481E4,-1.0984526E-1,5.8989566E-2,3.2218472E5,4.1876E2,-1.097937E-1,2.0614377E5,-1.09085694E-1,1.979432E-2,-1.08934484E-1,9.99949E-1,-1.09438434E-1,2.225265E4,-1.08868554E-1,7.2815E4,1E0,-9.781327E-2,7.059881E7,-3.1878456E5,9.699814E-1,1.0725639E-1,-1.0491013E-1,-7.713242E-2,1.1664017E-1,7.75426E-2,-1.092567E-1,6.336007E-2,-1.1215898E-1,1.1001744E-1,-8.5032575E-2,-5.175683E-2,9.812826E-2,1.0716083E-1,-1.0980977E-1,1.083653E-1,1.0109692E-1,-1.129187E-1,7.6506175E-2,1.677417E-2,1.065241E-1],"split_indices":[6,12,3,6,6,6,1,0,25,9,26,17,14,0,0,1,0,0,0,9,5,7,0,9,6,3,0,19,0,9,0,21,0,1,0,6,25,0,14,7,9,0,0,0,0,0,0,0,0,0,0,0,0,0,0,0,0,0,0,0,0],"split_type":[0,0,0,0,0,0,0,0,0,0,0,0,0,0,0,0,0,0,0,0,0,0,0,0,0,0,0,0,0,0,0,0,0,0,0,0,0,0,0,0,0,0,0,0,0,0,0,0,0,0,0,0,0,0,0,0,0,0,0,0,0],"sum_hessian":[6.085521E4,2.9807896E4,3.1047312E4,2.846954E3,2.6960941E4,2.9814174E4,1.233139E3,5.5404504E2,2.2929092E3,1.984512E4,7.1158237E3,6.1273604E3,2.3686814E4,1.0906356E3,1.4250343E2,1.9597024E3,3.3320682E2,2.2793497E2,1.9617184E4,6.204271E3,9.115527E2,4.8272036E3,1.3001569E3,1.697572E4,6.711093E3,1.8553853E3,1.04317154E2,1.22314384E2,1.05620575E2,5.694079E2,1.9047775E4,2.022392E3,4.181879E3,5.3268176E2,3.788709E2,1.440449E3,3.3867546E3,4.601354E0,1.697112E4,2.3125146E3,4.398578E3,1.8302924E3,2.509281E1,2.2312715E0,1.20083115E2,1.27538246E2,4.418697E2,8.0570593E2,1.216686E3,5.298096E2,2.8721416E0,4.8078903E2,9.596599E2,3.346904E3,3.985069E1,1.4805384E4,2.1657358E3,2.4921318E2,2.0633015E3,1.4730861E2,4.2512695E3],"tree_param":{"num_deleted":"0","num_feature":"29","num_nodes":"61","size_leaf_vector":"1"}},{"base_weights":[2.751642E-2,-8.490942E-1,8.293507E-1,5.4789853E-1,-9.311231E-1,-8.30317E-1,8.950839E-1,-1.0751837E-1,9.5412284E-1,-1.0483462E0,-5.8380103E-1,-1.0791788E-1,1.0768124E-1,5.7033265E-1,1.0260967E0,1.0128971E0,-1.0689157E-1,-3.703726E-1,-1.0785051E-1,1.0750848E-1,-1.09303355E-1,8.539085E-1,-1.1013495E-1,1.0697736E0,9.274271E-1,1.0599501E0,-1.0411634E-1,-1.0816276E-1,5.2626956E-1,7.3255646E-1,-1.0775381E-1,1.0637794E0,5.701578E-1,1.0700564E0,-7.922684E-2,6.791956E-1,1.0258976E0,-1.01188175E-1,1.0681615E-1,1.0929755E-1,-1.1279123E-1,8.231588E-2,-1.2575698E-1,1.06557764E-1,-9.887549E-2,6.545294E-3,9.24853E-2,1.0770047E-1,1.03634E-1,-1.14088714E-1,8.75521E-2,1.0296314E-1,-1.1558908E-1],"categories":[],"categories_nodes":[],"categories_segments":[],"categories_sizes":[],"default_left":[0,0,0,0,0,0,0,0,0,0,0,0,0,0,0,0,0,0,0,0,0,0,0,0,0,0,0,0,0,0,0,0,0,0,0,0,0,0,0,0,0,0,0,0,0,0,0,0,0,0,0,0,0],"id":19,"left_children":[1,3,5,7,9,11,13,-1,15,17,19,-1,-1,21,23,25,-1,27,-1,29,-1,31,-1,33,35,37,-1,-1,39,41,-1,43,45,47,-1,49,51,-1,-1,-1,-1,-1,-1,-1,-1,-1,-1,-1,-1,-1,-1,-1,-1],"loss_changes":[3.9961445E4,3.1128594E3,3.2400723E3,9.946168E2,1.0438652E3,5.382947E2,1.2146289E3,0E0,1.444585E2,3.9175586E2,2.2798225E3,0E0,0E0,3.8941091E3,8.670703E1,1.1440576E2,0E0,5.2246576E2,0E0,2.0360566E3,0E0,4.1756494E2,0E0,8.272461E0,1.5211719E2,2.058667E1,0E0,0E0,3.412136E2,3.2550165E2,0E0,1.5947754E1,5.3478595E2,2.1884766E0,0E0,6.3653436E2,3.7637207E1,0E0,0E0,0E0,0E0,0E0,0E0,0E0,0E0,0E0,0E0,0E0,0E0,0E0,0E0,0E0,0E0],"parents":[2147483647,0,0,1,1,2,2,3,3,4,4,5,5,6,6,8,8,9,9,10,10,13,13,14,14,15,15,17,17,19,19,21,21,23,23,24,24,25,25,28,28,29,29,31,31,32,32,33,33,35,35,36,36],"right_children":[2,4,6,8,10,12,14,-1,16,18,20,-1,-1,22,24,26,-1,28,-1,30,-1,32,-1,34,36,38,-1,-1,40,42,-1,44,46,48,-1,50,52,-1,-1,-1,-1,-1,-1,-1,-1,-1,-1,-1,-1,-1,-1,-1,-1],"split_conditions":[3.164987E4,2.977864E7,1E0,1E0,1E0,1E7,1.52962E5,-1.0751837E-1,9.9996674E-1,1.3E1,9.999596E-1,-1.0791788E-1,1.0768124E-1,9.999935E-1,2.114994E8,1E0,-1.0689157E-1,1.2E1,-1.0785051E-1,1E0,-1.09303355E-1,7.601337E7,-1.1013495E-1,1.479E3,3.2218472E5,9.14E2,-1.0411634E-1,-1.0816276E-1,4.632041E4,9.0588225E5,-1.0775381E-1,2.7662262E6,-6.110759E4,4.728058E7,-7.922684E-2,-3.1878456E5,4E0,-1.01188175E-1,1.0681615E-1,1.0929755E-1,-1.1279123E-1,8.231588E-2,-1.2575698E-1,1.06557764E-1,-9.887549E-2,6.545294E-3,9.24853E-2,1.0770047E-1,1.03634E-1,-1.14088714E-1,8.75521E-2,1.0296314E-1,-1.1558908E-1],"split_indices":[6,14,10,10,10,6,6,0,21,0,21,0,0,21,14,25,0,0,0,25,0,14,0,12,6,6,0,0,4,4,0,4,7,14,0,7,18,0,0,0,0,0,0,0,0,0,0,0,0,0,0,0,0],"split_type":[0,0,0,0,0,0,0,0,0,0,0,0,0,0,0,0,0,0,0,0,0,0,0,0,0,0,0,0,0,0,0,0,0,0,0,0,0,0,0,0,0,0,0,0,0,0,0,0,0,0,0,0,0],"sum_hessian":[5.6850535E4,2.7158865E4,2.9691668E4,1.5059583E3,2.5652908E4,1.1307308E3,2.8560938E4,3.011314E2,1.2048269E3,1.917816E4,6.474748E3,1.0005968E3,1.3013399E2,8.211594E3,2.0349344E4,1.1712971E3,3.3529736E1,8.173517E2,1.8360809E4,2.746721E3,3.7280269E3,7.0210645E3,1.190529E3,1.4098628E4,6.2507163E3,1.1455399E3,2.5757263E1,4.5568027E2,3.6167142E2,1.7984943E3,9.482267E2,4.0343694E3,2.9866948E3,1.4096912E4,1.7162477E0,1.7775747E3,4.4731416E3,4.0397277E0,1.1415001E3,2.6963608E2,9.203533E1,1.7207424E3,7.775191E1,4.0313184E3,3.0509248E0,1.2331702E3,1.7535247E3,1.166257E4,2.4343416E3,1.7260324E2,1.6049714E3,4.466027E3,7.114791E0],"tree_param":{"num_deleted":"0","num_feature":"29","num_nodes":"53","size_leaf_vector":"1"}},{"base_weights":[3.3034798E-2,-7.846015E-1,8.433798E-1,3.636868E-1,-9.139253E-1,1.0036472E0,-1.1412106E0,-7.5464714E-1,8.5261124E-1,-1.038787E0,-5.650269E-1,-7.776372E-1,1.0695227E0,-1.2091571E-1,-1.1061032E0,-1.0691297E-1,1.1527666E-1,1.0773278E0,-1.10705435E-1,-3.5706437E-1,-1.07048646E-1,1.0772251E0,-1.0901304E-1,-1.0704732E-1,1.0674204E-1,1.0697174E-1,-8.547172E-2,-1.0979289E-1,-1.2659238E-1,1.0789686E-1,-6.423459E-2,-1.0770672E-1,7.1139413E-1,1.1054182E0,-1.0655828E-1,1.5392558E-1,-1.09495305E-1,1.0483547E-1,1.1388862E-1],"categories":[],"categories_nodes":[],"categories_segments":[],"categories_sizes":[],"default_left":[0,0,0,0,0,0,0,0,0,0,0,0,0,0,0,0,0,0,0,0,0,0,0,0,0,0,0,0,0,0,0,0,0,0,0,0,0,0,0],"id":20,"left_children":[1,3,5,7,9,11,13,15,17,19,21,23,25,-1,27,-1,-1,29,-1,31,-1,33,-1,-1,-1,-1,-1,-1,-1,-1,-1,-1,35,37,-1,-1,-1,-1,-1],"loss_changes":[3.4778938E4,3.880377E3,8.38633E3,1.4471396E3,1.0224512E3,2.8632676E3,3.3625488E0,4.8427762E2,8.119999E2,3.7332617E2,5.340341E3,4.7149316E2,9.728516E0,0E0,3.2287598E-1,0E0,0E0,5.3552246E0,0E0,5.9303516E2,0E0,9.182959E1,0E0,0E0,0E0,0E0,0E0,0E0,0E0,0E0,0E0,0E0,4.6607642E2,1.6356201E0,0E0,0E0,0E0,0E0,0E0],"parents":[2147483647,0,0,1,1,2,2,3,3,4,4,5,5,6,6,7,7,8,8,9,9,10,10,11,11,12,12,14,14,17,17,19,19,21,21,32,32,33,33],"right_children":[2,4,6,8,10,12,14,16,18,20,22,24,26,-1,28,-1,-1,30,-1,32,-1,34,-1,-1,-1,-1,-1,-1,-1,-1,-1,-1,36,38,-1,-1,-1,-1,-1],"split_conditions":[4.0007E4,4.26E2,1.0184642E0,1E0,1E0,1E0,1.6244882E0,9.2557475E5,1.0184642E0,1.3E1,1.0184642E0,1E7,1E0,-1.2091571E-1,3.2218472E5,-1.0691297E-1,1.1527666E-1,1E0,-1.10705435E-1,1.4475266E5,-1.07048646E-1,1E0,-1.0901304E-1,-1.0704732E-1,1.0674204E-1,1.0697174E-1,-8.547172E-2,-1.0979289E-1,-1.2659238E-1,1.0789686E-1,-6.423459E-2,-1.0770672E-1,1.5037798E5,1.523889E4,-1.0655828E-1,1.5392558E-1,-1.09495305E-1,1.0483547E-1,1.1388862E-1],"split_indices":[6,12,8,10,10,10,8,13,8,0,8,6,25,0,6,0,0,25,0,8,0,25,0,0,0,0,0,0,0,0,0,0,19,4,0,0,0,0,0],"split_type":[0,0,0,0,0,0,0,0,0,0,0,0,0,0,0,0,0,0,0,0,0,0,0,0,0,0,0,0,0,0,0,0,0,0,0,0,0,0,0],"sum_hessian":[5.2489164E4,2.6127057E4,2.636211E4,2.6444773E3,2.3482578E4,2.4392744E4,1.9693638E3,8.042789E2,1.8401984E3,1.7292182E4,6.1903975E3,8.695369E2,2.3523209E4,6.595096E2,1.3098542E3,6.908202E2,1.1345868E2,1.6512935E3,1.8890498E2,7.688872E2,1.6523295E4,1.4995452E3,4.690852E3,7.5079517E2,1.18741714E2,2.3521273E4,1.9352984E0,1.2536057E3,5.6248425E1,1.6500916E3,1.2018209E0,4.59342E2,3.0954517E2,1.4805496E3,1.899562E1,2.1236476E2,9.718041E1,5.592849E2,9.2126465E2],"tree_param":{"num_deleted":"0","num_feature":"29","num_nodes":"39","size_leaf_vector":"1"}},{"base_weights":[-2.8100645E-3,-8.306934E-1,7.9429865E-1,5.16536E-1,-9.290902E-1,9.7798437E-1,-1.1238943E0,-5.176603E-1,9.0709597E-1,-1.4735298E-1,-9.761921E-1,-9.4333863E-1,1.0602789E0,-1.1824862E-1,-1.09274626E-1,-1.0601985E-1,1.1414202E-1,1.06184505E-1,-1.0943743E-1,-1.0661679E-1,4.834935E-1,-1.0632854E-1,-7.0474637E-1,-1.06331065E-1,1.0412294E-1,-1.349636E-1,1.0605605E0,7.920946E-1,-1.0789772E-1,1.0317715E0,-1.07976906E-1,1.1522116E-1,1.0595568E-1,4.3853126E-2,1.4823659E-1,1.0423644E-1,-1.6445045E-1],"categories":[],"categories_nodes":[],"categories_segments":[],"categories_sizes":[],"default_left":[0,0,0,0,0,0,0,0,0,0,0,0,0,0,0,0,0,0,0,0,0,0,0,0,0,0,0,0,0,0,0,0,0,0,0,0,0],"id":21,"left_children":[1,3,5,7,9,11,13,15,17,19,21,23,25,-1,-1,-1,-1,-1,-1,-1,27,-1,29,-1,-1,-1,31,33,-1,35,-1,-1,-1,-1,-1,-1,-1],"loss_changes":[3.0530314E4,3.0088672E3,8.305919E3,6.246458E2,7.7861523E2,3.4021797E3,2.4680176E0,3.830784E2,3.4869556E2,6.978631E2,4.7083398E2,2.1159167E2,1.5423828E1,0E0,0E0,0E0,0E0,0E0,0E0,0E0,3.451386E2,0E0,3.158596E3,0E0,0E0,0E0,6.777344E-1,1.4500845E2,0E0,2.6140991E1,0E0,0E0,0E0,0E0,0E0,0E0,0E0],"parents":[2147483647,0,0,1,1,2,2,3,3,4,4,5,5,6,6,7,7,8,8,9,9,10,10,11,11,12,12,20,20,22,22,26,26,27,27,29,29],"right_children":[2,4,6,8,10,12,14,16,18,20,22,24,26,-1,-1,-1,-1,-1,-1,-1,28,-1,30,-1,-1,-1,32,34,-1,36,-1,-1,-1,-1,-1,-1,-1],"split_conditions":[3.164987E4,2.42E2,1.0184642E0,1E0,1.4E1,1E0,1.7066805E0,7.2867994E5,1.0184642E0,1E0,1E0,2.8601808E6,1.2180601E-2,-1.1824862E-1,-1.09274626E-1,-1.0601985E-1,1.1414202E-1,1.06184505E-1,-1.0943743E-1,-1.0661679E-1,1.4968284E5,-1.0632854E-1,1.0184642E0,-1.06331065E-1,1.0412294E-1,-1.349636E-1,1.5173034E-2,9.999933E-1,-1.0789772E-1,2.769138E4,-1.07976906E-1,1.1522116E-1,1.0595568E-1,4.3853126E-2,1.4823659E-1,1.0423644E-1,-1.6445045E-1],"split_indices":[6,12,8,10,0,10,8,9,8,23,10,1,9,0,0,0,0,0,0,0,1,0,8,0,0,0,9,21,0,19,0,0,0,0,0,0,0],"split_type":[0,0,0,0,0,0,0,0,0,0,0,0,0,0,0,0,0,0,0,0,0,0,0,0,0,0,0,0,0,0,0,0,0,0,0,0,0],"sum_hessian":[4.626215E4,2.269299E4,2.3569158E4,1.544313E3,2.1148676E4,2.150987E4,2.0592898E3,4.232441E2,1.1210688E3,1.2020885E3,1.9946588E4,8.830452E2,2.0626824E4,7.019351E2,1.3573547E3,3.1921738E2,1.0402672E2,1.041047E3,8.002191E1,4.890733E2,7.130152E2,1.5099124E4,4.8474634E3,8.3314386E2,4.9901356E1,1.8491161E0,2.0624975E4,5.958274E2,1.1718784E2,8.6062854E2,3.986835E3,2.1096838E2,2.0414006E4,3.950926E2,2.0073479E2,8.578436E2,2.7848907E0],"tree_param":{"num_deleted":"0","num_feature":"29","num_nodes":"37","size_leaf_vector":"1"}},{"base_weights":[5.2320566E-3,-8.036629E-1,8.0472434E-1,7.365282E-1,-8.7296295E-1,9.7843045E-1,-1.1131597E0,-1.0434736E-1,9.0039927E-1,-1.0254556E0,-4.622775E-1,-7.907474E-1,1.0524213E0,-1.167102E-1,-1.0858764E-1,1.0634837E-1,-1.0591222E-1,-1.05703495E-1,-8.6256063E-1,1.0619893E0,-1.0724836E-1,-1.056559E-1,1.0512568E-1,-1.0388519E-1,1.0526453E0,4.57632E-1,-1.0569411E-1,1.0649743E0,-1.4108522E-1,1.0584737E-1,1.0399354E0,-1.06875174E-1,1.0747769E-1,1.11541286E-1,1.0064743E-1,9.6212275E-2,1.04890645E-1],"categories":[],"categories_nodes":[],"categories_segments":[],"categories_sizes":[],"default_left":[0,0,0,0,0,0,0,0,0,0,0,0,0,0,0,0,0,0,0,0,0,0,0,0,0,0,0,0,0,0,0,0,0,0,0,0,0],"id":22,"left_children":[1,3,5,7,9,11,13,-1,15,17,19,21,23,-1,-1,-1,-1,-1,25,27,-1,-1,-1,-1,29,31,-1,33,-1,-1,35,-1,-1,-1,-1,-1,-1],"loss_changes":[2.7490812E4,2.2559873E3,7.1233896E3,2.6648035E2,1.2658896E3,2.5670254E3,1.3464355E0,0E0,2.676914E2,7.493945E1,5.0954556E3,3.8670676E2,9.910156E0,0E0,0E0,0E0,0E0,0E0,6.163074E2,1.3064087E1,0E0,0E0,0E0,0E0,2.9296875E-1,2.9192737E2,0E0,3.494873E0,0E0,0E0,3.1606445E0,0E0,0E0,0E0,0E0,0E0,0E0],"parents":[2147483647,0,0,1,1,2,2,3,3,4,4,5,5,6,6,8,8,9,9,10,10,11,11,12,12,18,18,19,19,24,24,25,25,27,27,30,30],"right_children":[2,4,6,8,10,12,14,-1,16,18,20,22,24,-1,-1,-1,-1,-1,26,28,-1,-1,-1,-1,30,32,-1,34,-1,-1,36,-1,-1,-1,-1,-1,-1],"split_conditions":[3.516149E4,1.19E2,1.0184642E0,9.803471E-1,1E0,1E0,1.6244882E0,-1.0434736E-1,1.0184642E0,5.5150694E8,1.0184642E0,2.8601808E6,1.2180601E-2,-1.167102E-1,-1.0858764E-1,1.0634837E-1,-1.0591222E-1,-1.05703495E-1,5.5277446E8,3.597E3,-1.0724836E-1,-1.056559E-1,1.0512568E-1,-1.0388519E-1,1.695139E8,1.4475266E5,-1.0569411E-1,1.1146767E0,-1.4108522E-1,1.0584737E-1,1.1249871E5,-1.06875174E-1,1.0747769E-1,1.11541286E-1,1.0064743E-1,9.6212275E-2,1.04890645E-1],"split_indices":[6,12,8,8,10,10,8,0,8,14,8,1,9,0,0,0,0,0,14,12,0,0,0,0,14,8,0,9,0,0,19,0,0,0,0,0,0],"split_type":[0,0,0,0,0,0,0,0,0,0,0,0,0,0,0,0,0,0,0,0,0,0,0,0,0,0,0,0,0,0,0,0,0,0,0,0,0],"sum_hessian":[4.250703E4,2.1129264E4,2.1377768E4,9.093503E2,2.0219914E4,1.9602797E4,1.77497E3,7.620694E1,8.331434E2,1.4743843E4,5.4760713E3,7.865316E2,1.8816266E4,5.821735E2,1.1927965E3,7.695533E2,6.359008E1,1.2345089E4,2.3987532E3,1.5652953E3,3.9107761E3,6.877167E2,9.8814995E1,1.5185028E0,1.8814746E4,3.076823E2,2.0910708E3,1.5639767E3,1.3185823E0,1.2843049E4,5.9716978E3,8.837435E1,2.1930795E2,8.301543E2,7.3382245E2,6.285079E2,5.34319E3],"tree_param":{"num_deleted":"0","num_feature":"29","num_nodes":"37","size_leaf_vector":"1"}}]},"name":"gbtree"},"learner_model_param":{"base_score":"[5E-1]","boost_from_average":"1","num_class":"0","num_feature":"29","num_target":"1"},"objective":{"name":"binary:logistic","reg_loss_param":{"scale_pos_weight":"906.529541"}}},"version":[3,2,0]}